{"learner":{"attributes":{"scikit_learn":"{\"_estimator_type\": \"regressor\"}"},"feature_names":[],"feature_types":[],"gradient_booster":{"model":{"gbtree_model_param":{"num_parallel_tree":"1","num_trees":"200"},"iteration_indptr":[0,1,2,3,4,5,6,7,8,9,10,11,12,13,14,15,16,17,18,19,20,21,22,23,24,25,26,27,28,29,30,31,32,33,34,35,36,37,38,39,40,41,42,43,44,45,46,47,48,49,50,51,52,53,54,55,56,57,58,59,60,61,62,63,64,65,66,67,68,69,70,71,72,73,74,75,76,77,78,79,80,81,82,83,84,85,86,87,88,89,90,91,92,93,94,95,96,97,98,99,100,101,102,103,104,105,106,107,108,109,110,111,112,113,114,115,116,117,118,119,120,121,122,123,124,125,126,127,128,129,130,131,132,133,134,135,136,137,138,139,140,141,142,143,144,145,146,147,148,149,150,151,152,153,154,155,156,157,158,159,160,161,162,163,164,165,166,167,168,169,170,171,172,173,174,175,176,177,178,179,180,181,182,183,184,185,186,187,188,189,190,191,192,193,194,195,196,197,198,199,200],"tree_info":[0,0,0,0,0,0,0,0,0,0,0,0,0,0,0,0,0,0,0,0,0,0,0,0,0,0,0,0,0,0,0,0,0,0,0,0,0,0,0,0,0,0,0,0,0,0,0,0,0,0,0,0,0,0,0,0,0,0,0,0,0,0,0,0,0,0,0,0,0,0,0,0,0,0,0,0,0,0,0,0,0,0,0,0,0,0,0,0,0,0,0,0,0,0,0,0,0,0,0,0,0,0,0,0,0,0,0,0,0,0,0,0,0,0,0,0,0,0,0,0,0,0,0,0,0,0,0,0,0,0,0,0,0,0,0,0,0,0,0,0,0,0,0,0,0,0,0,0,0,0,0,0,0,0,0,0,0,0,0,0,0,0,0,0,0,0,0,0,0,0,0,0,0,0,0,0,0,0,0,0,0,0,0,0,0,0,0,0,0,0,0,0,0,0,0,0,0,0,0,0],"trees":[{"base_weights":[-1.0461222E-6,-8.456921E0,3.4028423E1,2.7258708E0,-2.3360386E1,4.3257107E1,-1.4993204E1,7.854747E-1,-2.2960029E0,-3.0525572E0,-5.330287E-1,3.6117768E0,7.2818766E0,-2.5003178E0,-5.430129E-2],"categories":[],"categories_nodes":[],"categories_segments":[],"categories_sizes":[],"default_left":[0,0,0,0,0,0,0,0,0,0,0,0,0,0,0],"id":0,"left_children":[1,3,5,7,9,11,13,-1,-1,-1,-1,-1,-1,-1,-1],"loss_changes":[1.0049125E7,4.661443E6,3.145317E6,2.1053825E6,1.548813E6,1.232016E6,1.5938636E5,0E0,0E0,0E0,0E0,0E0,0E0,0E0,0E0],"parents":[2147483647,0,0,1,1,2,2,3,3,4,4,5,5,6,6],"right_children":[2,4,6,8,10,12,14,-1,-1,-1,-1,-1,-1,-1,-1],"split_conditions":[1.335163E-2,1.3829328E0,2.2647717E0,2.2647717E0,-3.5737097E-2,2.238068E0,1.1218096E0,7.854747E-1,-2.2960029E0,-3.0525572E0,-5.330287E-1,3.6117768E0,7.2818766E0,-2.5003178E0,-5.430129E-2],"split_indices":[254,14,10,10,293,6,274,0,0,0,0,0,0,0,0],"split_type":[0,0,0,0,0,0,0,0,0,0,0,0,0,0,0],"sum_hessian":[3.4918E4,2.7968E4,6.95E3,1.5979E4,1.1989E4,5.849E3,1.101E3,1.332E4,2.659E3,8.579E3,3.41E3,4.713E3,1.136E3,6.5E2,4.51E2],"tree_param":{"num_deleted":"0","num_feature":"300","num_nodes":"15","size_leaf_vector":"1"}},{"base_weights":[9.250709E-5,-7.632676E0,3.0547567E1,2.4348683E0,-2.1024645E1,3.8850624E1,-1.3545476E1,7.0459324E-1,-2.0657842E0,-2.747337E0,-4.7974157E-1,3.1587398E0,6.720968E0,-2.246028E0,-6.255164E-2],"categories":[],"categories_nodes":[],"categories_segments":[],"categories_sizes":[],"default_left":[0,0,0,0,0,0,0,0,0,0,0,0,0,0,0],"id":1,"left_children":[1,3,5,7,9,11,13,-1,-1,-1,-1,-1,-1,-1,-1],"loss_changes":[8.142011E6,3.7669058E6,2.5563185E6,1.6985329E6,1.254561E6,1.208E6,1.27489E5,0E0,0E0,0E0,0E0,0E0,0E0,0E0,0E0],"parents":[2147483647,0,0,1,1,2,2,3,3,4,4,5,5,6,6],"right_children":[2,4,6,8,10,12,14,-1,-1,-1,-1,-1,-1,-1,-1],"split_conditions":[3.562192E-3,1.3829328E0,2.2647717E0,2.2647717E0,-3.5737097E-2,2.2044744E0,1.1218096E0,7.0459324E-1,-2.0657842E0,-2.747337E0,-4.7974157E-1,3.1587398E0,6.720968E0,-2.246028E0,-6.255164E-2],"split_indices":[254,14,10,10,293,7,274,0,0,0,0,0,0,0,0],"split_type":[0,0,0,0,0,0,0,0,0,0,0,0,0,0,0],"sum_hessian":[3.4918E4,2.7938E4,6.98E3,1.5949E4,1.1989E4,5.874E3,1.106E3,1.3295E4,2.654E3,8.579E3,3.41E3,4.678E3,1.196E3,6.54E2,4.52E2],"tree_param":{"num_deleted":"0","num_feature":"300","num_nodes":"15","size_leaf_vector":"1"}},{"base_weights":[1.7053387E-4,9.894728E0,-1.892245E1,9.7234285E-1,3.1508062E1,-2.1471426E1,1.614692E1,-1.566673E-1,4.988443E0,3.8526113E0,-5.3317183E-1,-2.422797E0,1.5155007E0,1.0157876E0,1.8865645E0],"categories":[],"categories_nodes":[],"categories_segments":[],"categories_sizes":[],"default_left":[0,0,0,0,0,0,0,0,0,0,0,0,0,0,0],"id":2,"left_children":[1,3,5,7,9,11,13,-1,-1,-1,-1,-1,-1,-1,-1],"loss_changes":[6.538105E6,4.421848E6,1.072145E6,2.0157828E6,1.7324465E6,1.1289245E6,1.3046094E4,0E0,0E0,0E0,0E0,0E0,0E0,0E0,0E0],"parents":[2147483647,0,0,1,1,2,2,3,3,4,4,5,5,6,6],"right_children":[2,4,6,8,10,12,14,-1,-1,-1,-1,-1,-1,-1,-1],"split_conditions":[1.3829328E0,-2.053422E-2,6.373613E-2,6.373613E-2,2.2647717E0,5.227348E-2,5.8488462E-2,-1.566673E-1,4.988443E0,3.8526113E0,-5.3317183E-1,-2.422797E0,1.5155007E0,1.0157876E0,1.8865645E0],"split_indices":[14,278,163,163,10,179,46,0,0,0,0,0,0,0,0],"split_type":[0,0,0,0,0,0,0,0,0,0,0,0,0,0,0],"sum_hessian":[3.4918E4,2.2929E4,1.1989E4,1.623E4,6.699E3,1.1177E4,8.12E2,1.543E4,8E2,5.627E3,1.072E3,1.0395E4,7.82E2,2.55E2,5.57E2],"tree_param":{"num_deleted":"0","num_feature":"300","num_nodes":"15","size_leaf_vector":"1"}},{"base_weights":[4.441003E-4,-6.3241262E0,2.5448854E1,-1.0462326E1,1.5101229E1,3.2457436E1,-1.17795105E1,-1.6995595E0,-1.8811406E-1,2.1322064E0,-1.6823088E0,2.5823512E0,5.825047E0,-2.0013425E0,1.0557337E-2],"categories":[],"categories_nodes":[],"categories_segments":[],"categories_sizes":[],"default_left":[0,0,0,0,0,0,0,0,0,0,0,0,0,0,0],"id":3,"left_children":[1,3,5,7,9,11,13,-1,-1,-1,-1,-1,-1,-1,-1],"loss_changes":[5.620383E6,2.4799565E6,1.8140235E6,1.314201E6,8.99601E5,9.994835E5,1.0784467E5,0E0,0E0,0E0,0E0,0E0,0E0,0E0,0E0],"parents":[2147483647,0,0,1,1,2,2,3,3,4,4,5,5,6,6],"right_children":[2,4,6,8,10,12,14,-1,-1,-1,-1,-1,-1,-1,-1],"split_conditions":[1.335163E-2,2.9597288E-2,-4.0065917E-1,1.1218096E0,-4.0065917E-1,2.2044744E0,1.1218096E0,-1.6995595E0,-1.8811406E-1,2.1322064E0,-1.6823088E0,2.5823512E0,5.825047E0,-2.0013425E0,1.0557337E-2],"split_indices":[254,271,76,274,76,7,274,0,0,0,0,0,0,0,0],"split_type":[0,0,0,0,0,0,0,0,0,0,0,0,0,0,0],"sum_hessian":[3.4918E4,2.7968E4,6.95E3,2.3441E4,4.527E3,5.849E3,1.101E3,1.3308E4,1.0133E4,3.789E3,7.38E2,4.654E3,1.195E3,6.5E2,4.51E2],"tree_param":{"num_deleted":"0","num_feature":"300","num_nodes":"15","size_leaf_vector":"1"}},{"base_weights":[5.4252753E-4,8.351729E0,-1.5970493E1,4.6380563E0,4.9102753E1,-2.2755056E1,-5.248674E0,1.4534967E-1,3.707098E0,5.5305414E0,3.9157379E0,-2.825454E0,-1.5078486E0,-9.617562E-1,1.5682824E0],"categories":[],"categories_nodes":[],"categories_segments":[],"categories_sizes":[],"default_left":[0,0,0,0,0,0,0,0,0,0,0,0,0,0,0],"id":4,"left_children":[1,3,5,7,9,11,13,-1,-1,-1,-1,-1,-1,-1,-1],"loss_changes":[4.6575285E6,3.4699065E6,8.7206775E5,2.170575E6,1.159665E5,3.0957425E5,4.251982E5,0E0,0E0,0E0,0E0,0E0,0E0,0E0,0E0],"parents":[2147483647,0,0,1,1,2,2,3,3,4,4,5,5,6,6],"right_children":[2,4,6,8,10,12,14,-1,-1,-1,-1,-1,-1,-1,-1],"split_conditions":[1.3829328E0,6.373613E-2,7.3418617E-3,4.194423E0,-4.971555E-1,1.1218096E0,-3.9449978E-1,1.4534967E-1,3.707098E0,5.5305414E0,3.9157379E0,-2.825454E0,-1.5078486E0,-9.617562E-1,1.5682824E0],"split_indices":[14,163,263,169,81,274,72,0,0,0,0,0,0,0,0],"split_type":[0,0,0,0,0,0,0,0,0,0,0,0,0,0,0],"sum_hessian":[3.4918E4,2.2929E4,1.1989E4,2.1015E4,1.914E3,7.342E3,4.647E3,1.9137E4,1.878E3,1.176E3,7.38E2,4.276E3,3.066E3,3.845E3,8.02E2],"tree_param":{"num_deleted":"0","num_feature":"300","num_nodes":"15","size_leaf_vector":"1"}},{"base_weights":[7.620456E-4,-8.120772E0,1.4502391E1,-1.203953E0,-1.9255121E1,9.590618E0,3.645117E1,-2.142159E-1,1.0069029E1,-2.5837414E0,-1.4626188E0,2.398914E-1,3.596457E0,4.409413E0,1.3762957E0],"categories":[],"categories_nodes":[],"categories_segments":[],"categories_sizes":[],"default_left":[0,0,0,0,0,0,0,0,0,0,0,0,0,0,0],"id":5,"left_children":[1,3,5,7,9,11,13,-1,-1,-1,-1,-1,-1,-1,-1],"loss_changes":[4.1127195E6,1.7238645E6,1.3511245E6,1.3202296E6,2.609545E5,1.9431202E6,3.968375E5,0E0,0E0,0E0,0E0,0E0,0E0,0E0,0E0],"parents":[2147483647,0,0,1,1,2,2,3,3,4,4,5,5,6,6],"right_children":[2,4,6,8,10,12,14,-1,-1,-1,-1,-1,-1,-1,-1],"split_conditions":[-3.5737403E-2,1.3829328E0,2.2044744E0,1.6683645E1,-6.259667E-2,9.791133E-2,1.4841379E-1,-2.142159E-1,1.0069029E1,-2.5837414E0,-1.4626188E0,2.398914E-1,3.596457E0,4.409413E0,1.3762957E0],"split_indices":[293,14,7,21,278,129,137,0,0,0,0,0,0,0,0],"split_type":[0,0,0,0,0,0,0,0,0,0,0,0,0,0,0],"sum_hessian":[3.4918E4,2.2383E4,1.2535E4,1.3807E4,8.576E3,1.0244E4,2.291E3,1.3682E4,1.25E2,3.539E3,5.037E3,8.05E3,2.194E3,1.713E3,5.78E2],"tree_param":{"num_deleted":"0","num_feature":"300","num_nodes":"15","size_leaf_vector":"1"}},{"base_weights":[1.1276767E-3,-4.967031E0,1.9884438E1,-8.15982E0,1.1542364E1,2.5683746E1,-1.0911251E1,-1.3581202E0,-1.04030445E-1,1.6790799E0,-1.5390123E0,2.0621855E0,4.6736083E0,-2.0847616E0,-2.4496146E-1],"categories":[],"categories_nodes":[],"categories_segments":[],"categories_sizes":[],"default_left":[0,0,0,0,0,0,0,0,0,0,0,0,0,0,0],"id":6,"left_children":[1,3,5,7,9,11,13,-1,-1,-1,-1,-1,-1,-1,-1],"loss_changes":[3.4495178E6,1.4727872E6,1.2470432E6,9.03633E5,6.403065E5,6.251035E5,9.302317E4,0E0,0E0,0E0,0E0,0E0,0E0,0E0,0E0],"parents":[2147483647,0,0,1,1,2,2,3,3,4,4,5,5,6,6],"right_children":[2,4,6,8,10,12,14,-1,-1,-1,-1,-1,-1,-1,-1],"split_conditions":[3.562192E-3,2.9597288E-2,2.2647717E0,1.1218096E0,2.2647717E0,6.373613E-2,-9.877498E-1,-1.3581202E0,-1.04030445E-1,1.6790799E0,-1.5390123E0,2.0621855E0,4.6736083E0,-2.0847616E0,-2.4496146E-1],"split_indices":[254,271,10,274,10,163,82,0,0,0,0,0,0,0,0],"split_type":[0,0,0,0,0,0,0,0,0,0,0,0,0,0,0],"sum_hessian":[3.4918E4,2.7938E4,6.98E3,2.3411E4,4.527E3,5.874E3,1.106E3,1.329E4,1.0121E4,3.789E3,7.38E2,4.737E3,1.137E3,5.08E2,5.98E2],"tree_param":{"num_deleted":"0","num_feature":"300","num_nodes":"15","size_leaf_vector":"1"}},{"base_weights":[1.1046286E-3,6.525945E0,-1.2477177E1,2.3399481E-1,2.1767456E1,-1.429494E1,1.2530745E1,2.7729326E-1,-3.0382557E0,2.6527812E0,-3.2214147E-1,-1.6286452E0,1.3536037E0,1.0240791E0,1.8290757E0],"categories":[],"categories_nodes":[],"categories_segments":[],"categories_sizes":[],"default_left":[0,0,0,0,0,0,0,0,0,0,0,0,0,0,0],"id":7,"left_children":[1,3,5,7,9,11,13,-1,-1,-1,-1,-1,-1,-1,-1],"loss_changes":[2.8431442E6,2.198955E6,5.452266E5,1.261777E6,7.9709025E5,6.19769E5,1.0536281E4,0E0,0E0,0E0,0E0,0E0,0E0,0E0,0E0],"parents":[2147483647,0,0,1,1,2,2,3,3,4,4,5,5,6,6],"right_children":[2,4,6,8,10,12,14,-1,-1,-1,-1,-1,-1,-1,-1],"split_conditions":[1.3829328E0,-2.053422E-2,6.373613E-2,4.1779904E0,2.2647717E0,3.974701E-2,5.5754995E-1,2.7729326E-1,-3.0382557E0,2.6527812E0,-3.2214147E-1,-1.6286452E0,1.3536037E0,1.0240791E0,1.8290757E0],"split_indices":[14,278,163,215,10,221,70,0,0,0,0,0,0,0,0],"split_type":[0,0,0,0,0,0,0,0,0,0,0,0,0,0,0],"sum_hessian":[3.4918E4,2.2929E4,1.1989E4,1.623E4,6.699E3,1.1177E4,8.12E2,1.4988E4,1.242E3,5.627E3,1.072E3,1.0431E4,7.46E2,5.83E2,2.29E2],"tree_param":{"num_deleted":"0","num_feature":"300","num_nodes":"15","size_leaf_vector":"1"}},{"base_weights":[1.0556186E-3,-2.6537614E0,3.1020853E1,-5.5482874E0,2.8596842E1,3.6500504E1,1.5261771E1,-8.913107E-1,1.0945091E0,3.5933151E0,1.1281182E0,3.9762552E0,2.5860343E0,1.4626744E0,4.379429E0],"categories":[],"categories_nodes":[],"categories_segments":[],"categories_sizes":[],"default_left":[0,0,0,0,0,0,0,0,0,0,0,0,0,0,0],"id":8,"left_children":[1,3,5,7,9,11,13,-1,-1,-1,-1,-1,-1,-1,-1],"loss_changes":[2.875728E6,2.9098465E6,2.37176E5,1.6339916E6,3.46014E5,6.9847E4,1.2260125E4,0E0,0E0,0E0,0E0,0E0,0E0,0E0,0E0],"parents":[2147483647,0,0,1,1,2,2,3,3,4,4,5,5,6,6],"right_children":[2,4,6,8,10,12,14,-1,-1,-1,-1,-1,-1,-1,-1],"split_conditions":[5.227348E-2,6.373613E-2,1.4841379E-1,2.116377E0,-6.3905376E-1,5.128277E-2,1.7296675E-1,-8.913107E-1,1.0945091E0,3.5933151E0,1.1281182E0,3.9762552E0,2.5860343E0,1.4626744E0,4.379429E0],"split_indices":[179,163,137,247,80,271,50,0,0,0,0,0,0,0,0],"split_type":[0,0,0,0,0,0,0,0,0,0,0,0,0,0,0],"sum_hessian":[3.4918E4,3.2166E4,2.752E3,2.944E4,2.726E3,2.041E3,7.11E2,2.4452E4,4.988E3,1.914E3,8.12E2,1.56E3,4.81E2,6.97E2,1.4E1],"tree_param":{"num_deleted":"0","num_feature":"300","num_nodes":"15","size_leaf_vector":"1"}},{"base_weights":[1.4468954E-3,-2.3882315E0,2.7923271E1,-4.9934516E0,2.5738895E1,3.2853664E1,1.3743797E1,4.449062E-3,-1.4222738E0,3.234172E0,1.0154455E0,2.6725395E0,3.7499516E0,1.4313512E0,-2.7681534E0],"categories":[],"categories_nodes":[],"categories_segments":[],"categories_sizes":[],"default_left":[0,0,0,0,0,0,0,0,0,0,0,0,0,0,0],"id":9,"left_children":[1,3,5,7,9,11,13,-1,-1,-1,-1,-1,-1,-1,-1],"loss_changes":[2.3300082E6,2.3572412E6,1.92012E5,1.3689075E6,2.8028375E5,5.71355E4,1.719986E4,0E0,0E0,0E0,0E0,0E0,0E0,0E0,0E0],"parents":[2147483647,0,0,1,1,2,2,3,3,4,4,5,5,6,6],"right_children":[2,4,6,8,10,12,14,-1,-1,-1,-1,-1,-1,-1,-1],"split_conditions":[5.227348E-2,6.373613E-2,1.4841379E-1,1.3829328E0,1.3829328E0,-5.9401083E-1,3.9797794E-2,4.449062E-3,-1.4222738E0,3.234172E0,1.0154455E0,2.6725395E0,3.7499516E0,1.4313512E0,-2.7681534E0],"split_indices":[179,163,137,14,14,79,128,0,0,0,0,0,0,0,0],"split_type":[0,0,0,0,0,0,0,0,0,0,0,0,0,0,0],"sum_hessian":[3.4918E4,3.2166E4,2.752E3,2.944E4,2.726E3,2.041E3,7.11E2,1.9045E4,1.0395E4,1.914E3,8.12E2,8.83E2,1.158E3,7.02E2,9E0],"tree_param":{"num_deleted":"0","num_feature":"300","num_nodes":"15","size_leaf_vector":"1"}},{"base_weights":[1.5271968E-3,-2.149322E0,2.5132788E1,-5.396652E0,1.3043289E1,2.970561E1,1.3253612E1,-1.3628466E0,-2.1319234E-1,1.2037089E0,8.590839E0,3.259611E0,2.0612676E0,2.8436866E0,1.1807247E0],"categories":[],"categories_nodes":[],"categories_segments":[],"categories_sizes":[],"default_left":[0,0,0,0,0,0,0,0,0,0,0,0,0,0,0],"id":10,"left_children":[1,3,5,7,9,11,13,-1,-1,-1,-1,-1,-1,-1,-1],"loss_changes":[1.8875499E6,1.587043E6,1.49153E5,7.122295E5,4.1430638E5,5.1552625E4,1.6507969E4,0E0,0E0,0E0,0E0,0E0,0E0,0E0,0E0],"parents":[2147483647,0,0,1,1,2,2,3,3,4,4,5,5,6,6],"right_children":[2,4,6,8,10,12,14,-1,-1,-1,-1,-1,-1,-1,-1],"split_conditions":[5.227348E-2,2.116377E0,-6.7434853E-1,1.0284215E-1,1.6683645E1,5.128277E-2,-2.4109715E-1,-1.3628466E0,-2.1319234E-1,1.2037089E0,8.590839E0,3.259611E0,2.0612676E0,2.8436866E0,1.1807247E0],"split_indices":[179,247,100,142,21,271,146,0,0,0,0,0,0,0,0],"split_type":[0,0,0,0,0,0,0,0,0,0,0,0,0,0,0],"sum_hessian":[3.4918E4,3.2166E4,2.752E3,2.6502E4,5.664E3,1.986E3,7.66E2,7.525E3,1.8977E4,5.588E3,7.6E1,1.505E3,4.81E2,6.5E1,7.01E2],"tree_param":{"num_deleted":"0","num_feature":"300","num_nodes":"15","size_leaf_vector":"1"}},{"base_weights":[1.8794992E-3,-5.0772557E0,9.07107E0,-5.544605E0,7.7524284E1,1.3035457E1,-1.5253502E0,-7.300829E-1,1.2122473E0,8.060246E0,-3.651076E0,1.6455475E0,-7.1581984E-1,-5.05739E-1,1.8186234E0],"categories":[],"categories_nodes":[],"categories_segments":[],"categories_sizes":[],"default_left":[0,0,0,0,0,0,0,0,0,0,0,0,0,0,0],"id":11,"left_children":[1,3,5,7,9,11,13,-1,-1,-1,-1,-1,-1,-1,-1],"loss_changes":[1.6085424E6,8.645357E5,5.266361E5,6.907263E5,4.7171375E4,6.3017625E5,2.3778183E5,0E0,0E0,0E0,0E0,0E0,0E0,0E0,0E0],"parents":[2147483647,0,0,1,1,2,2,3,3,4,4,5,5,6,6],"right_children":[2,4,6,8,10,12,14,-1,-1,-1,-1,-1,-1,-1,-1],"split_conditions":[-3.5737403E-2,1.6683645E1,1.3829328E0,4.022941E0,2.0444386E0,2.2647717E0,1.0131648E0,-7.300829E-1,1.2122473E0,8.060246E0,-3.651076E0,1.6455475E0,-7.1581984E-1,-5.05739E-1,1.8186234E0],"split_indices":[293,21,14,237,81,10,33,0,0,0,0,0,0,0,0],"split_type":[0,0,0,0,0,0,0,0,0,0,0,0,0,0,0],"sum_hessian":[3.4918E4,2.2383E4,1.2535E4,2.2258E4,1.25E2,9.122E3,3.413E3,2.0246E4,2.012E3,1.22E2,3E0,7.801E3,1.321E3,2.895E3,5.18E2],"tree_param":{"num_deleted":"0","num_feature":"300","num_nodes":"15","size_leaf_vector":"1"}},{"base_weights":[1.8926986E-3,-1.8878366E0,2.2310677E1,-4.7089934E0,1.1231022E1,2.7433601E1,1.0216319E1,-6.062552E-1,1.1598672E0,1.0463351E0,8.319221E0,2.9473226E0,1.5368019E0,9.8610777E-1,4.4729877E0],"categories":[],"categories_nodes":[],"categories_segments":[],"categories_sizes":[],"default_left":[0,0,0,0,0,0,0,0,0,0,0,0,0,0,0],"id":12,"left_children":[1,3,5,7,9,11,13,-1,-1,-1,-1,-1,-1,-1,-1],"loss_changes":[1.472142E6,1.1915272E6,1.686805E5,5.8492644E5,3.1390175E5,4.667375E4,9.526828E3,0E0,0E0,0E0,0E0,0E0,0E0,0E0,0E0],"parents":[2147483647,0,0,1,1,2,2,3,3,4,4,5,5,6,6],"right_children":[2,4,6,8,10,12,14,-1,-1,-1,-1,-1,-1,-1,-1],"split_conditions":[6.373613E-2,2.116377E0,1.3829328E0,4.022941E0,1.6393604E1,3.3569555E0,9.8985267E-1,-6.062552E-1,1.1598672E0,1.0463351E0,8.319221E0,2.9473226E0,1.5368019E0,9.8610777E-1,4.4729877E0],"split_indices":[163,247,14,237,66,265,64,0,0,0,0,0,0,0,0],"split_type":[0,0,0,0,0,0,0,0,0,0,0,0,0,0,0],"sum_hessian":[3.4918E4,3.2192E4,2.726E3,2.6495E4,5.697E3,1.914E3,8.12E2,2.4465E4,2.03E3,5.638E3,5.9E1,1.636E3,2.78E2,8.05E2,7E0],"tree_param":{"num_deleted":"0","num_feature":"300","num_nodes":"15","size_leaf_vector":"1"}},{"base_weights":[2.2722255E-3,-1.8740158E0,2.1925467E1,-3.9077644E0,2.008325E1,1.7076904E1,2.8579075E1,-8.8519764E-1,2.505705E-1,2.469258E0,9.2013973E-1,1.4417413E0,2.4271655E0,2.7945287E0,5.8667674E0],"categories":[],"categories_nodes":[],"categories_segments":[],"categories_sizes":[],"default_left":[0,0,0,0,0,0,0,0,0,0,0,0,0,0,0],"id":13,"left_children":[1,3,5,7,9,11,13,-1,-1,-1,-1,-1,-1,-1,-1],"loss_changes":[1.4364071E6,1.4365139E6,8.8325E4,9.335831E5,1.3655375E5,3.0169375E4,2.0462438E4,0E0,0E0,0E0,0E0,0E0,0E0,0E0,0E0],"parents":[2147483647,0,0,1,1,2,2,3,3,4,4,5,5,6,6],"right_children":[2,4,6,8,10,12,14,-1,-1,-1,-1,-1,-1,-1,-1],"split_conditions":[5.227348E-2,6.373613E-2,-5.9401083E-1,1.1218096E0,1.3829328E0,2.4642882E0,6.33115E-2,-8.8519764E-1,2.505705E-1,2.469258E0,9.2013973E-1,1.4417413E0,2.4271655E0,2.7945287E0,5.8667674E0],"split_indices":[179,163,79,274,14,264,87,0,0,0,0,0,0,0,0],"split_type":[0,0,0,0,0,0,0,0,0,0,0,0,0,0,0],"sum_hessian":[3.4918E4,3.2166E4,2.752E3,2.944E4,2.726E3,1.594E3,1.158E3,1.6624E4,1.2816E4,1.914E3,8.12E2,1.166E3,4.28E2,1.136E3,2.2E1],"tree_param":{"num_deleted":"0","num_feature":"300","num_nodes":"15","size_leaf_vector":"1"}},{"base_weights":[2.4841295E-3,-1.6865271E0,1.9737473E1,-3.5170083E0,1.8076172E1,2.282209E1,1.0863139E1,3.4869757E-2,-1.059884E0,1.2457596E0,2.5910497E0,2.4935658E0,1.5929765E0,1.1379236E0,-2.6504757E0],"categories":[],"categories_nodes":[],"categories_segments":[],"categories_sizes":[],"default_left":[0,0,0,0,0,0,0,0,0,0,0,0,0,0,0],"id":14,"left_children":[1,3,5,7,9,11,13,-1,-1,-1,-1,-1,-1,-1,-1],"loss_changes":[1.163975E6,1.1637128E6,7.5112375E4,8.059885E5,1.19713625E5,2.93495E4,1.4032844E4,0E0,0E0,0E0,0E0,0E0,0E0,0E0,0E0],"parents":[2147483647,0,0,1,1,2,2,3,3,4,4,5,5,6,6],"right_children":[2,4,6,8,10,12,14,-1,-1,-1,-1,-1,-1,-1,-1],"split_conditions":[5.227348E-2,6.373613E-2,1.4841379E-1,1.3829328E0,1.4778076E0,5.128277E-2,3.9797794E-2,3.4869757E-2,-1.059884E0,1.2457596E0,2.5910497E0,2.4935658E0,1.5929765E0,1.1379236E0,-2.6504757E0],"split_indices":[179,163,137,14,13,271,128,0,0,0,0,0,0,0,0],"split_type":[0,0,0,0,0,0,0,0,0,0,0,0,0,0,0],"sum_hessian":[3.4918E4,3.2166E4,2.752E3,2.944E4,2.726E3,2.041E3,7.11E2,1.9045E4,1.0395E4,1.589E3,1.137E3,1.56E3,4.81E2,7.02E2,9E0],"tree_param":{"num_deleted":"0","num_feature":"300","num_nodes":"15","size_leaf_vector":"1"}},{"base_weights":[2.3919225E-3,-3.0918396E0,9.48095E0,-5.718086E0,5.385862E0,1.2325299E1,-7.2713842E0,-7.9176444E-1,8.908474E-1,4.7183457E-1,5.7274127E0,9.013912E-1,1.7796777E0,-1.5631819E0,1.6115046E-1],"categories":[],"categories_nodes":[],"categories_segments":[],"categories_sizes":[],"default_left":[0,0,0,0,0,0,0,0,0,0,0,0,0,0,0],"id":15,"left_children":[1,3,5,7,9,11,13,-1,-1,-1,-1,-1,-1,-1,-1],"loss_changes":[1.02416356E6,5.8616694E5,4.0958925E5,6.467272E5,2.154098E5,1.3295388E5,9.270767E4,0E0,0E0,0E0,0E0,0E0,0E0,0E0,0E0],"parents":[2147483647,0,0,1,1,2,2,3,3,4,4,5,5,6,6],"right_children":[2,4,6,8,10,12,14,-1,-1,-1,-1,-1,-1,-1,-1],"split_conditions":[1.7502972E0,-2.053422E-2,-3.964288E-1,3.500949E0,1.6393604E1,-2.7543984E-2,2.0850672E-1,-7.9176444E-1,8.908474E-1,4.7183457E-1,5.7274127E0,9.013912E-1,1.7796777E0,-1.5631819E0,1.6115046E-1],"split_indices":[250,278,76,240,66,278,82,0,0,0,0,0,0,0,0],"split_type":[0,0,0,0,0,0,0,0,0,0,0,0,0,0,0],"sum_hessian":[3.4918E4,2.6325E4,8.593E3,2.0099E4,6.226E3,7.346E3,1.247E3,1.7472E4,2.627E3,6.148E3,7.8E1,4.578E3,2.768E3,6.42E2,6.05E2],"tree_param":{"num_deleted":"0","num_feature":"300","num_nodes":"15","size_leaf_vector":"1"}},{"base_weights":[2.368682E-3,-1.4736212E0,1.7248343E1,-3.070213E0,1.57639065E1,1.9829384E1,9.821747E0,1.47835715E-2,-8.9655465E-1,1.9439148E0,7.087584E-1,2.1136334E0,1.2677441E0,9.3540496E-1,4.980986E0],"categories":[],"categories_nodes":[],"categories_segments":[],"categories_sizes":[],"default_left":[0,0,0,0,0,0,0,0,0,0,0,0,0,0,0],"id":16,"left_children":[1,3,5,7,9,11,13,-1,-1,-1,-1,-1,-1,-1,-1],"loss_changes":[8.8888444E5,8.8532594E5,5.257575E4,5.585405E5,8.6819625E4,1.8819125E4,1.2850141E4,0E0,0E0,0E0,0E0,0E0,0E0,0E0,0E0],"parents":[2147483647,0,0,1,1,2,2,3,3,4,4,5,5,6,6],"right_children":[2,4,6,8,10,12,14,-1,-1,-1,-1,-1,-1,-1,-1],"split_conditions":[5.227348E-2,6.373613E-2,1.4841379E-1,1.3829328E0,1.3829328E0,5.128331E-2,2.6214463E-1,1.47835715E-2,-8.9655465E-1,1.9439148E0,7.087584E-1,2.1136334E0,1.2677441E0,9.3540496E-1,4.980986E0],"split_indices":[179,163,137,14,14,271,143,0,0,0,0,0,0,0,0],"split_type":[0,0,0,0,0,0,0,0,0,0,0,0,0,0,0],"sum_hessian":[3.4918E4,3.2166E4,2.752E3,2.944E4,2.726E3,2.041E3,7.11E2,1.9045E4,1.0395E4,1.914E3,8.12E2,1.724E3,3.17E2,7.04E2,7E0],"tree_param":{"num_deleted":"0","num_feature":"300","num_nodes":"15","size_leaf_vector":"1"}},{"base_weights":[2.4475374E-3,-2.150583E0,9.644808E0,-3.3819935E0,1.3817236E1,1.2067393E1,-3.2635844E0,-4.6490103E-1,1.1654093E0,1.4206637E0,-2.2618082E0,1.1501002E0,5.669979E0,-3.981298E-1,8.694827E0],"categories":[],"categories_nodes":[],"categories_segments":[],"categories_sizes":[],"default_left":[0,0,0,0,0,0,0,0,0,0,0,0,0,0,0],"id":17,"left_children":[1,3,5,7,9,11,13,-1,-1,-1,-1,-1,-1,-1,-1],"loss_changes":[7.2494956E5,5.6134506E5,1.9936506E5,5.0496206E5,2.9321531E4,1.3502238E5,6.561042E4,0E0,0E0,0E0,0E0,0E0,0E0,0E0,0E0],"parents":[2147483647,0,0,1,1,2,2,3,3,4,4,5,5,6,6],"right_children":[2,4,6,8,10,12,14,-1,-1,-1,-1,-1,-1,-1,-1],"split_conditions":[2.116377E0,5.227348E-2,-4.1896185E-1,4.9562108E-2,-1.2154723E-2,1.6627827E1,1.6683645E1,-4.6490103E-1,1.1654093E0,1.4206637E0,-2.2618082E0,1.1501002E0,5.669979E0,-3.981298E-1,8.694827E0],"split_indices":[247,179,96,163,109,66,21,0,0,0,0,0,0,0,0],"split_type":[0,0,0,0,0,0,0,0,0,0,0,0,0,0,0],"sum_hessian":[3.4918E4,2.8545E4,6.373E3,2.6502E4,2.043E3,5.366E3,1.007E3,2.4443E4,2.059E3,2.022E3,2.1E1,5.3E3,6.6E1,1E3,7E0],"tree_param":{"num_deleted":"0","num_feature":"300","num_nodes":"15","size_leaf_vector":"1"}},{"base_weights":[2.6341965E-3,-3.7190795E0,4.6861877E0,-4.7751064E0,1.793533E1,8.292779E0,-2.6927254E0,-6.2431365E-1,1.2902383E0,1.8253068E0,-3.2714584E0,9.868607E-1,-1.2793949E-1,-3.763063E-1,1.3778442E0],"categories":[],"categories_nodes":[],"categories_segments":[],"categories_sizes":[],"default_left":[0,0,0,0,0,0,0,0,0,0,0,0,0,0,0],"id":18,"left_children":[1,3,5,7,9,11,13,-1,-1,-1,-1,-1,-1,-1,-1],"loss_changes":[6.086851E5,4.4504406E5,4.115083E5,4.8157706E5,1.5161656E4,1.5667606E5,8.955789E4,0E0,0E0,0E0,0E0,0E0,0E0,0E0,0E0],"parents":[2147483647,0,0,1,1,2,2,3,3,4,4,5,5,6,6],"right_children":[2,4,6,8,10,12,14,-1,-1,-1,-1,-1,-1,-1,-1],"split_conditions":[1.1218096E0,4.2994757E0,1.3829328E0,5.227348E-2,3.9620967E0,-1.1537524E-2,3.974701E-2,-6.2431365E-1,1.2902383E0,1.8253068E0,-3.2714584E0,9.868607E-1,-1.2793949E-1,-3.763063E-1,1.3778442E0],"split_indices":[274,153,14,179,63,221,221,0,0,0,0,0,0,0,0],"split_type":[0,0,0,0,0,0,0,0,0,0,0,0,0,0,0],"sum_hessian":[3.4918E4,1.9457E4,1.5461E4,1.8553E4,9.04E2,1.0385E4,5.076E3,1.7131E4,1.422E3,8.99E2,5E0,8.917E3,1.468E3,4.767E3,3.09E2],"tree_param":{"num_deleted":"0","num_feature":"300","num_nodes":"15","size_leaf_vector":"1"}},{"base_weights":[2.4010795E-3,-2.3032415E0,7.0652757E0,-2.5743182E0,5.408392E1,9.249345E0,-5.798045E0,-3.7789187E-1,8.200404E-1,9.410365E0,4.2218904E0,6.965279E-1,1.3023086E0,-1.3101656E0,1.9610627E-1],"categories":[],"categories_nodes":[],"categories_segments":[],"categories_sizes":[],"default_left":[0,0,0,0,0,0,0,0,0,0,0,0,0,0,0],"id":19,"left_children":[1,3,5,7,9,11,13,-1,-1,-1,-1,-1,-1,-1,-1],"loss_changes":[5.686535E5,4.025385E5,2.4149681E5,3.400999E5,5.585622E4,6.32365E4,7.0749234E4,0E0,0E0,0E0,0E0,0E0,0E0,0E0,0E0],"parents":[2147483647,0,0,1,1,2,2,3,3,4,4,5,5,6,6],"right_children":[2,4,6,8,10,12,14,-1,-1,-1,-1,-1,-1,-1,-1],"split_conditions":[1.7502972E0,-4.8407968E-2,-3.964288E-1,3.500949E0,-5.9726935E-2,-2.7543984E-2,2.0850672E-1,-3.7789187E-1,8.200404E-1,9.410365E0,4.2218904E0,6.965279E-1,1.3023086E0,-1.3101656E0,1.9610627E-1],"split_indices":[250,107,76,240,23,278,82,0,0,0,0,0,0,0,0],"split_type":[0,0,0,0,0,0,0,0,0,0,0,0,0,0,0],"sum_hessian":[3.4918E4,2.6325E4,8.593E3,2.62E4,1.25E2,7.346E3,1.247E3,2.3566E4,2.634E3,2.7E1,9.8E1,4.578E3,2.768E3,6.42E2,6.05E2],"tree_param":{"num_deleted":"0","num_feature":"300","num_nodes":"15","size_leaf_vector":"1"}},{"base_weights":[2.5901399E-3,-2.3298824E0,6.300117E0,-5.783392E-1,-1.1330505E1,9.23762E0,-1.0913895E0,2.5272286E-1,-5.9773284E-1,-1.4031836E0,2.302181E0,1.1413345E0,-2.460484E-1,-3.503594E-1,1.3685457E0],"categories":[],"categories_nodes":[],"categories_segments":[],"categories_sizes":[],"default_left":[0,0,0,0,0,0,0,0,0,0,0,0,0,0,0],"id":20,"left_children":[1,3,5,7,9,11,13,-1,-1,-1,-1,-1,-1,-1,-1],"loss_changes":[5.129332E5,4.0171662E5,2.0493334E5,3.576872E5,3.8552325E5,1.7192994E5,9.5754164E4,0E0,0E0,0E0,0E0,0E0,0E0,0E0,0E0],"parents":[2147483647,0,0,1,1,2,2,3,3,4,4,5,5,6,6],"right_children":[2,4,6,8,10,12,14,-1,-1,-1,-1,-1,-1,-1,-1],"split_conditions":[-2.053422E-2,9.80938E-2,-6.31524E-1,1.3829328E0,-1.0051181E-3,-3.907883E-1,1.0131648E0,2.5272286E-1,-5.9773284E-1,-1.4031836E0,2.302181E0,1.1413345E0,-2.460484E-1,-3.503594E-1,1.3685457E0],"split_indices":[278,133,80,14,263,76,33,0,0,0,0,0,0,0,0],"split_type":[0,0,0,0,0,0,0,0,0,0,0,0,0,0,0],"sum_hessian":[3.4918E4,2.5481E4,9.437E3,2.1331E4,4.15E3,6.753E3,2.684E3,1.3542E4,7.789E3,3.848E3,3.02E2,5.694E3,1.059E3,2.308E3,3.76E2],"tree_param":{"num_deleted":"0","num_feature":"300","num_nodes":"15","size_leaf_vector":"1"}},{"base_weights":[2.4026912E-3,-1.0764731E0,1.2608358E1,-4.8814592E-1,-2.83179E1,1.2951375E1,-1.2240076E1,2.1911561E-1,-5.3363293E-1,-3.785427E0,-1.3053565E0,1.4598663E0,7.797704E-1,-2.44183E0,1.0381043E0],"categories":[],"categories_nodes":[],"categories_segments":[],"categories_sizes":[],"default_left":[0,0,0,0,0,0,0,0,0,0,0,0,0,0,0],"id":21,"left_children":[1,3,5,7,9,11,13,-1,-1,-1,-1,-1,-1,-1,-1],"loss_changes":[4.7492106E5,5.1552262E5,2.36235E4,4.0903284E5,9.8491E4,2.2943844E4,1.0721919E4,0E0,0E0,0E0,0E0,0E0,0E0,0E0,0E0],"parents":[2147483647,0,0,1,1,2,2,3,3,4,4,5,5,6,6],"right_children":[2,4,6,8,10,12,14,-1,-1,-1,-1,-1,-1,-1,-1],"split_conditions":[5.227348E-2,4.807769E0,-1.3821336E-2,1.3829328E0,1.1218096E0,5.529481E-1,1.2400353E0,2.1911561E-1,-5.3363293E-1,-3.785427E0,-1.3053565E0,1.4598663E0,7.797704E-1,-2.44183E0,1.0381043E0],"split_indices":[179,171,68,14,274,37,70,0,0,0,0,0,0,0,0],"split_type":[0,0,0,0,0,0,0,0,0,0,0,0,0,0,0],"sum_hessian":[3.4918E4,3.2166E4,2.752E3,3.1487E4,6.79E2,2.715E3,3.7E1,2.028E4,1.1207E4,4.17E2,2.62E2,2.056E3,6.59E2,2.4E1,1.3E1],"tree_param":{"num_deleted":"0","num_feature":"300","num_nodes":"15","size_leaf_vector":"1"}},{"base_weights":[2.0302464E-3,-1.0096153E0,1.1944788E1,-2.1651134E0,1.1347824E1,1.38624E1,5.7081404E0,-1.613499E-1,-2.5493596E0,9.612779E-1,1.5935017E0,1.4080018E0,-3.789934E0,7.527322E-1,-4.6093914E-1],"categories":[],"categories_nodes":[],"categories_segments":[],"categories_sizes":[],"default_left":[0,0,0,0,0,0,0,0,0,0,0,0,0,0,0],"id":22,"left_children":[1,3,5,7,9,11,13,-1,-1,-1,-1,-1,-1,-1,-1],"loss_changes":[4.2189772E5,4.5970838E5,3.2534344E4,3.7881525E5,2.1757938E4,2.4019719E4,1.2103463E4,0E0,0E0,0E0,0E0,0E0,0E0,0E0,0E0],"parents":[2147483647,0,0,1,1,2,2,3,3,4,4,5,5,6,6],"right_children":[2,4,6,8,10,12,14,-1,-1,-1,-1,-1,-1,-1,-1],"split_conditions":[6.373613E-2,5.227348E-2,1.7750986E0,4.807769E0,2.314205E-2,3.962759E0,1.6313936E-1,-1.613499E-1,-2.5493596E0,9.612779E-1,1.5935017E0,1.4080018E0,-3.789934E0,7.527322E-1,-4.6093914E-1],"split_indices":[163,179,259,171,254,104,91,0,0,0,0,0,0,0,0],"split_type":[0,0,0,0,0,0,0,0,0,0,0,0,0,0,0],"sum_hessian":[3.4918E4,3.2192E4,2.726E3,2.944E4,2.752E3,2.084E3,6.42E2,2.8761E4,6.79E2,1.999E3,7.53E2,2.076E3,8E0,5.46E2,9.6E1],"tree_param":{"num_deleted":"0","num_feature":"300","num_nodes":"15","size_leaf_vector":"1"}},{"base_weights":[1.7600761E-3,-3.0232503E0,3.8085542E0,-3.3332627E0,5.0078705E1,6.2162905E0,-1.1176931E0,-4.4476476E-1,1.115535E0,6.0785384E0,1.3724649E0,6.95519E-1,-6.0858315E-1,-1.9869648E-1,1.225587E0],"categories":[],"categories_nodes":[],"categories_segments":[],"categories_sizes":[],"default_left":[0,0,0,0,0,0,0,0,0,0,0,0,0,0,0],"id":23,"left_children":[1,3,5,7,9,11,13,-1,-1,-1,-1,-1,-1,-1,-1],"loss_changes":[4.0212447E5,3.2048956E5,1.8340334E5,3.1240806E5,4.3148875E4,9.445134E4,5.9045785E4,0E0,0E0,0E0,0E0,0E0,0E0,0E0,0E0],"parents":[2147483647,0,0,1,1,2,2,3,3,4,4,5,5,6,6],"right_children":[2,4,6,8,10,12,14,-1,-1,-1,-1,-1,-1,-1,-1],"split_conditions":[1.1218096E0,1.6393604E1,1.3829328E0,6.373613E-2,1.3200431E0,4.9447384E0,3.974701E-2,-4.4476476E-1,1.115535E0,6.0785384E0,1.3724649E0,6.95519E-1,-6.0858315E-1,-1.9869648E-1,1.225587E0],"split_indices":[274,66,14,163,72,213,221,0,0,0,0,0,0,0,0],"split_type":[0,0,0,0,0,0,0,0,0,0,0,0,0,0,0],"sum_hessian":[3.4918E4,1.9457E4,1.5461E4,1.9345E4,1.12E2,1.0385E4,5.076E3,1.7964E4,1.381E3,8.6E1,2.6E1,9.797E3,5.88E2,4.767E3,3.09E2],"tree_param":{"num_deleted":"0","num_feature":"300","num_nodes":"15","size_leaf_vector":"1"}},{"base_weights":[1.8465678E-3,-2.7205095E0,3.4277685E0,-9.227646E-1,-1.1655995E1,5.5946646E0,-1.0057182E0,2.1559136E-1,-6.3948745E-1,-1.6086893E0,2.0235677E0,6.2597364E-1,-5.478283E-1,-1.7883064E-1,1.1034237E0],"categories":[],"categories_nodes":[],"categories_segments":[],"categories_sizes":[],"default_left":[0,0,0,0,0,0,0,0,0,0,0,0,0,0,0],"id":24,"left_children":[1,3,5,7,9,11,13,-1,-1,-1,-1,-1,-1,-1,-1],"loss_changes":[3.2568416E5,3.1255725E5,1.4854758E5,2.7293297E5,4.6085066E5,7.651994E4,4.7856883E4,0E0,0E0,0E0,0E0,0E0,0E0,0E0,0E0],"parents":[2147483647,0,0,1,1,2,2,3,3,4,4,5,5,6,6],"right_children":[2,4,6,8,10,12,14,-1,-1,-1,-1,-1,-1,-1,-1],"split_conditions":[1.1218096E0,9.80938E-2,1.3829328E0,1.3829328E0,-1.0051181E-3,4.9447384E0,3.974701E-2,2.1559136E-1,-6.3948745E-1,-1.6086893E0,2.0235677E0,6.2597364E-1,-5.478283E-1,-1.7883064E-1,1.1034237E0],"split_indices":[274,133,14,14,263,213,221,0,0,0,0,0,0,0,0],"split_type":[0,0,0,0,0,0,0,0,0,0,0,0,0,0,0],"sum_hessian":[3.4918E4,1.9457E4,1.5461E4,1.6199E4,3.258E3,1.0385E4,5.076E3,1.0367E4,5.832E3,2.861E3,3.97E2,9.797E3,5.88E2,4.767E3,3.09E2],"tree_param":{"num_deleted":"0","num_feature":"300","num_nodes":"15","size_leaf_vector":"1"}},{"base_weights":[1.6898029E-3,-8.537512E-1,9.996957E0,4.356004E-2,-1.086905E1,1.0304205E1,-1.222629E1,-1.28202485E-2,5.109476E0,-1.175008E0,1.7164406E0,1.3581215E0,8.467078E-1,-1.8697447E0,2.540279E0],"categories":[],"categories_nodes":[],"categories_segments":[],"categories_sizes":[],"default_left":[0,0,0,0,0,0,0,0,0,0,0,0,0,0,0],"id":25,"left_children":[1,3,5,7,9,11,13,-1,-1,-1,-1,-1,-1,-1,-1],"loss_changes":[2.985786E5,2.8908016E5,1.8923594E4,2.5888438E5,6.552872E4,1.6236125E4,9.728107E3,0E0,0E0,0E0,0E0,0E0,0E0,0E0,0E0],"parents":[2147483647,0,0,1,1,2,2,3,3,4,4,5,5,6,6],"right_children":[2,4,6,8,10,12,14,-1,-1,-1,-1,-1,-1,-1,-1],"split_conditions":[5.227348E-2,3.40339E0,-1.3821336E-2,1.6683645E1,4.2994757E0,-1.1629256E-1,1.7047929E0,-1.28202485E-2,5.109476E0,-1.175008E0,1.7164406E0,1.3581215E0,8.467078E-1,-1.8697447E0,2.540279E0],"split_indices":[179,283,68,21,153,124,58,0,0,0,0,0,0,0,0],"split_type":[0,0,0,0,0,0,0,0,0,0,0,0,0,0,0],"sum_hessian":[3.4918E4,3.2166E4,2.752E3,2.9522E4,2.644E3,2.715E3,3.7E1,2.9424E4,9.8E1,2.564E3,8E1,9.73E2,1.742E3,3.2E1,5E0],"tree_param":{"num_deleted":"0","num_feature":"300","num_nodes":"15","size_leaf_vector":"1"}},{"base_weights":[1.7621511E-3,-8.2370794E-1,9.746668E0,-3.053258E-1,-2.593969E1,9.923101E0,-4.4638935E1,-1.1949296E-1,8.998303E-1,-3.8357632E0,-1.5150667E0,9.1174024E-1,1.8602532E0,-6.531962E0,1.849563E0],"categories":[],"categories_nodes":[],"categories_segments":[],"categories_sizes":[],"default_left":[0,0,0,0,0,0,0,0,0,0,0,0,0,0,0],"id":26,"left_children":[1,3,5,7,9,11,13,-1,-1,-1,-1,-1,-1,-1,-1],"loss_changes":[2.8090097E5,4.1913456E5,2.6609797E4,2.6107778E5,8.663816E4,1.8844406E4,1.2959121E4,0E0,0E0,0E0,0E0,0E0,0E0,0E0,0E0],"parents":[2147483647,0,0,1,1,2,2,3,3,4,4,5,5,6,6],"right_children":[2,4,6,8,10,12,14,-1,-1,-1,-1,-1,-1,-1,-1],"split_conditions":[6.373613E-2,4.848078E0,3.964047E0,5.227348E-2,8.139221E-1,2.653312E0,1.6517523E-1,-1.1949296E-1,8.998303E-1,-3.8357632E0,-1.5150667E0,9.1174024E-1,1.8602532E0,-6.531962E0,1.849563E0],"split_indices":[163,155,104,179,61,277,5,0,0,0,0,0,0,0,0],"split_type":[0,0,0,0,0,0,0,0,0,0,0,0,0,0,0],"sum_hessian":[3.4918E4,3.2192E4,2.726E3,3.1542E4,6.5E2,2.718E3,8E0,2.879E4,2.752E3,3.01E2,3.49E2,2.489E3,2.29E2,6E0,2E0],"tree_param":{"num_deleted":"0","num_feature":"300","num_nodes":"15","size_leaf_vector":"1"}},{"base_weights":[1.3992647E-3,-2.3719363E0,2.9880998E0,-8.007726E-1,-1.0181228E1,4.9334497E0,-9.920833E-1,1.9412194E-1,-5.674452E-1,-1.416389E0,1.8483492E0,5.5180234E-1,-4.7992998E-1,-2.3348665E-2,-1.1695279E0],"categories":[],"categories_nodes":[],"categories_segments":[],"categories_sizes":[],"default_left":[0,0,0,0,0,0,0,0,0,0,0,0,0,0,0],"id":27,"left_children":[1,3,5,7,9,11,13,-1,-1,-1,-1,-1,-1,-1,-1],"loss_changes":[2.4752844E5,2.3873522E5,1.1972483E5,2.1650119E5,3.723153E5,5.9117766E4,4.1219504E4,0E0,0E0,0E0,0E0,0E0,0E0,0E0,0E0],"parents":[2147483647,0,0,1,1,2,2,3,3,4,4,5,5,6,6],"right_children":[2,4,6,8,10,12,14,-1,-1,-1,-1,-1,-1,-1,-1],"split_conditions":[1.1218096E0,9.80938E-2,-6.3905376E-1,-6.3905376E-1,-1.0051181E-3,4.9447384E0,3.6509138E-2,1.9412194E-1,-5.674452E-1,-1.416389E0,1.8483492E0,5.5180234E-1,-4.7992998E-1,-2.3348665E-2,-1.1695279E0],"split_indices":[274,133,80,80,263,213,208,0,0,0,0,0,0,0,0],"split_type":[0,0,0,0,0,0,0,0,0,0,0,0,0,0,0],"sum_hessian":[3.4918E4,1.9457E4,1.5461E4,1.6199E4,3.258E3,1.0385E4,5.076E3,1.0367E4,5.832E3,2.861E3,3.97E2,9.797E3,5.88E2,4.741E3,3.35E2],"tree_param":{"num_deleted":"0","num_feature":"300","num_nodes":"15","size_leaf_vector":"1"}},{"base_weights":[1.2278102E-3,7.272421E-1,-8.405474E0,5.900494E-1,4.067489E1,-9.339018E0,1.6412039E1,-7.6951854E-2,4.298497E-1,7.515569E0,2.964929E0,-9.8864806E-1,2.6086586E0,-8.5418814E-1,2.7076259E0],"categories":[],"categories_nodes":[],"categories_segments":[],"categories_sizes":[],"default_left":[0,0,0,0,0,0,0,0,0,0,0,0,0,0,0],"id":28,"left_children":[1,3,5,7,9,11,13,-1,-1,-1,-1,-1,-1,-1,-1],"loss_changes":[2.1313023E5,1.76142E5,6.446828E4,1.6152014E5,3.9590547E4,5.2156734E4,2.71088E4,0E0,0E0,0E0,0E0,0E0,0E0,0E0,0E0],"parents":[2147483647,0,0,1,1,2,2,3,3,4,4,5,5,6,6],"right_children":[2,4,6,8,10,12,14,-1,-1,-1,-1,-1,-1,-1,-1],"split_conditions":[3.40339E0,1.6406717E1,4.194423E0,1.7502972E0,-5.5635903E-2,7.8186746E0,1.1094349E-1,-7.6951854E-2,4.298497E-1,7.515569E0,2.964929E0,-9.8864806E-1,2.6086586E0,-8.5418814E-1,2.7076259E0],"split_indices":[283,107,169,250,68,152,91,0,0,0,0,0,0,0,0],"split_type":[0,0,0,0,0,0,0,0,0,0,0,0,0,0,0],"sum_hessian":[3.4918E4,3.2143E4,2.775E3,3.2034E4,1.09E2,2.675E3,1E2,2.3441E4,8.593E3,2.5E1,8.4E1,2.635E3,4E1,3E1,7E1],"tree_param":{"num_deleted":"0","num_feature":"300","num_nodes":"15","size_leaf_vector":"1"}},{"base_weights":[1.5125328E-3,-7.201035E-1,8.520391E0,-2.4953455E-1,-2.3519547E1,8.680788E0,-4.0883778E1,-1.0172679E-1,7.7795476E-1,-3.4205463E0,-1.376471E0,7.803979E-1,1.5997909E0,8.3630145E-1,-6.690101E0],"categories":[],"categories_nodes":[],"categories_segments":[],"categories_sizes":[],"default_left":[0,0,0,0,0,0,0,0,0,0,0,0,0,0,0],"id":29,"left_children":[1,3,5,7,9,11,13,-1,-1,-1,-1,-1,-1,-1,-1],"loss_changes":[2.1466581E5,3.453835E5,2.1964297E4,1.9444511E5,6.738897E4,1.7319484E4,1.209088E4,0E0,0E0,0E0,0E0,0E0,0E0,0E0,0E0],"parents":[2147483647,0,0,1,1,2,2,3,3,4,4,5,5,6,6],"right_children":[2,4,6,8,10,12,14,-1,-1,-1,-1,-1,-1,-1,-1],"split_conditions":[6.373613E-2,4.848078E0,3.964047E0,5.227348E-2,8.141479E-1,1.1547322E0,-4.935135E-2,-1.0172679E-1,7.7795476E-1,-3.4205463E0,-1.376471E0,7.803979E-1,1.5997909E0,8.3630145E-1,-6.690101E0],"split_indices":[163,155,104,179,102,88,23,0,0,0,0,0,0,0,0],"split_type":[0,0,0,0,0,0,0,0,0,0,0,0,0,0,0],"sum_hessian":[3.4918E4,3.2192E4,2.726E3,3.1542E4,6.5E2,2.718E3,8E0,2.879E4,2.752E3,3.09E2,3.41E2,2.429E3,2.89E2,3E0,5E0],"tree_param":{"num_deleted":"0","num_feature":"300","num_nodes":"15","size_leaf_vector":"1"}},{"base_weights":[1.1469589E-3,-2.6590621E0,2.052329E0,-8.198568E0,-6.501448E-1,1.8725688E0,3.6946423E1,-9.016638E-1,1.4521847E0,5.8099825E-2,-7.605936E-1,1.1995484E-1,8.8748056E-1,4.767528E0,-1.5112291E-1],"categories":[],"categories_nodes":[],"categories_segments":[],"categories_sizes":[],"default_left":[0,0,0,0,0,0,0,0,0,0,0,0,0,0,0],"id":30,"left_children":[1,3,5,7,9,11,13,-1,-1,-1,-1,-1,-1,-1,-1],"loss_changes":[1.9054355E5,1.6917988E5,1.2360705E5,7.533344E4,9.555678E4,9.243738E4,4.174533E4,0E0,0E0,0E0,0E0,0E0,0E0,0E0,0E0],"parents":[2147483647,0,0,1,1,2,2,3,3,4,4,5,5,6,6],"right_children":[2,4,6,8,10,12,14,-1,-1,-1,-1,-1,-1,-1,-1],"split_conditions":[-9.906704E-1,5.8041465E-1,1.6406717E1,4.194423E0,9.80938E-2,2.959681E0,1.3200431E0,-9.016638E-1,1.4521847E0,5.8099825E-2,-7.605936E-1,1.1995484E-1,8.8748056E-1,4.767528E0,-1.5112291E-1],"split_indices":[82,19,107,169,133,98,72,0,0,0,0,0,0,0,0],"split_type":[0,0,0,0,0,0,0,0,0,0,0,0,0,0,0],"sum_hessian":[3.4918E4,1.5202E4,1.9716E4,4.045E3,1.1157E4,1.9616E4,1E2,3.905E3,1.4E2,9.48E3,1.677E3,1.7897E4,1.719E3,7.8E1,2.2E1],"tree_param":{"num_deleted":"0","num_feature":"300","num_nodes":"15","size_leaf_vector":"1"}},{"base_weights":[1.1896762E-3,9.7614485E-1,-5.1088305E0,3.145238E0,-3.1182318E0,-7.814608E0,1.462486E1,4.0128967E-1,-7.468835E-1,-6.233636E-1,-8.203144E-2,-1.2025931E0,-1.9599377E-1,-4.364597E0,1.5300821E0],"categories":[],"categories_nodes":[],"categories_segments":[],"categories_sizes":[],"default_left":[0,0,0,0,0,0,0,0,0,0,0,0,0,0,0],"id":31,"left_children":[1,3,5,7,9,11,13,-1,-1,-1,-1,-1,-1,-1,-1],"loss_changes":[1.7397284E5,2.6044758E5,2.988592E5,1.76574E5,7.2701086E4,1.21308125E5,2.725525E4,0E0,0E0,0E0,0E0,0E0,0E0,0E0,0E0],"parents":[2147483647,0,0,1,1,2,2,3,3,4,4,5,5,6,6],"right_children":[2,4,6,8,10,12,14,-1,-1,-1,-1,-1,-1,-1,-1],"split_conditions":[9.80938E-2,1.3829328E0,-1.0051181E-3,4.807769E0,-9.9359095E-1,1.1218096E0,-2.233332E0,4.0128967E-1,-7.468835E-1,-6.233636E-1,-8.203144E-2,-1.2025931E0,-1.9599377E-1,-4.364597E0,1.5300821E0],"split_indices":[133,14,263,171,82,274,0,0,0,0,0,0,0,0,0],"split_type":[0,0,0,0,0,0,0,0,0,0,0,0,0,0,0],"sum_hessian":[3.4918E4,2.9324E4,5.594E3,1.9169E4,1.0155E4,4.92E3,6.74E2,1.7721E4,1.448E3,4.31E3,5.845E3,2.861E3,2.059E3,7E0,6.67E2],"tree_param":{"num_deleted":"0","num_feature":"300","num_nodes":"15","size_leaf_vector":"1"}},{"base_weights":[9.191016E-4,-6.301783E-1,7.4512005E0,-7.4073386E-1,4.2672142E1,6.595956E0,1.461546E1,-4.7415772E-1,6.449657E-2,5.4568286E0,9.7834224E-1,6.757528E-1,-1.995382E0,9.1268826E-1,2.6143665E0],"categories":[],"categories_nodes":[],"categories_segments":[],"categories_sizes":[],"default_left":[0,0,0,0,0,0,0,0,0,0,0,0,0,0,0],"id":32,"left_children":[1,3,5,7,9,11,13,-1,-1,-1,-1,-1,-1,-1,-1],"loss_changes":[1.641887E5,1.5414953E5,1.6612453E4,1.780309E5,3.1548531E4,1.0593133E4,1.8110691E4,0E0,0E0,0E0,0E0,0E0,0E0,0E0,0E0],"parents":[2147483647,0,0,1,1,2,2,3,3,4,4,5,5,6,6],"right_children":[2,4,6,8,10,12,14,-1,-1,-1,-1,-1,-1,-1,-1],"split_conditions":[6.373613E-2,1.639537E1,1.1547322E0,-7.267337E-2,9.886695E-1,-1.2154723E-2,8.9306045E-1,-4.7415772E-1,6.449657E-2,5.4568286E0,9.7834224E-1,6.757528E-1,-1.995382E0,9.1268826E-1,2.6143665E0],"split_indices":[163,66,88,293,30,109,102,0,0,0,0,0,0,0,0],"split_type":[0,0,0,0,0,0,0,0,0,0,0,0,0,0,0],"sum_hessian":[3.4918E4,3.2192E4,2.726E3,3.2111E4,8.1E1,2.437E3,2.89E2,8.26E3,2.3851E4,5.9E1,2.2E1,2.423E3,1.4E1,1.97E2,9.2E1],"tree_param":{"num_deleted":"0","num_feature":"300","num_nodes":"15","size_leaf_vector":"1"}},{"base_weights":[1.0616336E-3,4.0300083E-1,-9.819663E0,1.9759231E0,-2.4251444E0,-1.5819881E1,2.3210397E0,2.598043E-1,-6.6595554E-1,-1.8385796E-1,-1.1175995E0,-1.687574E0,-8.0613613E-1,3.136689E-1,-4.364545E0],"categories":[],"categories_nodes":[],"categories_segments":[],"categories_sizes":[],"default_left":[0,0,0,0,0,0,0,0,0,0,0,0,0,0,0],"id":33,"left_children":[1,3,5,7,9,11,13,-1,-1,-1,-1,-1,-1,-1,-1],"loss_changes":[1.3784092E5,1.4923702E5,1.0005547E5,1.1583342E5,6.1523414E4,7.392297E3,1.7196E4,0E0,0E0,0E0,0E0,0E0,0E0,0E0,0E0],"parents":[2147483647,0,0,1,1,2,2,3,3,4,4,5,5,6,6],"right_children":[2,4,6,8,10,12,14,-1,-1,-1,-1,-1,-1,-1,-1],"split_conditions":[4.9447384E0,1.3829328E0,-2.7543984E-2,4.807769E0,3.4009445E-2,2.5686542E-2,9.062288E-1,2.598043E-1,-6.6595554E-1,-1.8385796E-1,-1.1175995E0,-1.687574E0,-8.0613613E-1,3.136689E-1,-4.364545E0],"split_indices":[213,14,278,171,194,284,105,0,0,0,0,0,0,0,0],"split_type":[0,0,0,0,0,0,0,0,0,0,0,0,0,0,0],"sum_hessian":[3.4918E4,3.3546E4,1.372E3,2.1557E4,1.1989E4,9.18E2,4.54E2,2.0109E4,1.448E3,1.1237E4,7.52E2,8.07E2,1.11E2,4.47E2,7E0],"tree_param":{"num_deleted":"0","num_feature":"300","num_nodes":"15","size_leaf_vector":"1"}},{"base_weights":[7.177006E-4,-6.1003673E-1,7.1369824E0,-1.5980557E-1,-2.145749E1,7.2289424E0,-5.7869873E1,3.5284854E-2,-1.264458E0,-3.184861E0,-1.2613353E0,1.2373729E0,6.0294026E-1,1.7917824E0,-8.910505E0],"categories":[],"categories_nodes":[],"categories_segments":[],"categories_sizes":[],"default_left":[0,0,0,0,0,0,0,0,0,0,0,0,0,0,0],"id":34,"left_children":[1,3,5,7,9,11,13,-1,-1,-1,-1,-1,-1,-1,-1],"loss_changes":[1.52199E5,3.019216E5,1.6875875E4,2.015393E5,6.2090656E4,1.6896688E4,1.1065536E4,0E0,0E0,0E0,0E0,0E0,0E0,0E0,0E0],"parents":[2147483647,0,0,1,1,2,2,3,3,4,4,5,5,6,6],"right_children":[2,4,6,8,10,12,14,-1,-1,-1,-1,-1,-1,-1,-1],"split_conditions":[5.227348E-2,4.807769E0,6.6058685E1,4.0324316E0,-9.926174E-1,9.0927444E-2,-5.499504E-1,3.5284854E-2,-1.264458E0,-3.184861E0,-1.2613353E0,1.2373729E0,6.0294026E-1,1.7917824E0,-8.910505E0],"split_indices":[179,171,269,170,82,110,0,0,0,0,0,0,0,0,0],"split_type":[0,0,0,0,0,0,0,0,0,0,0,0,0,0,0],"sum_hessian":[3.4918E4,3.2166E4,2.752E3,3.1487E4,6.79E2,2.749E3,3E0,3.0246E4,1.241E3,3.11E2,3.68E2,5.18E2,2.231E3,1E0,2E0],"tree_param":{"num_deleted":"0","num_feature":"300","num_nodes":"15","size_leaf_vector":"1"}},{"base_weights":[3.3412068E-4,-2.183538E0,1.6842316E0,-2.8421903E0,1.0602551E1,1.5376658E0,2.9309795E1,-3.2608685E-1,1.9424261E0,1.580108E0,5.5134994E-1,9.60723E-2,7.46371E-1,5.8378024E0,1.887195E0],"categories":[],"categories_nodes":[],"categories_segments":[],"categories_sizes":[],"default_left":[0,0,0,0,0,0,0,0,0,0,0,0,0,0,0],"id":35,"left_children":[1,3,5,7,9,11,13,-1,-1,-1,-1,-1,-1,-1,-1],"loss_changes":[1.2841541E5,1.280635E5,7.9788375E4,1.3485706E5,1.9622305E4,6.7052875E4,3.0452906E4,0E0,0E0,0E0,0E0,0E0,0E0,0E0,0E0],"parents":[2147483647,0,0,1,1,2,2,3,3,4,4,5,5,6,6],"right_children":[2,4,6,8,10,12,14,-1,-1,-1,-1,-1,-1,-1,-1],"split_conditions":[-9.906704E-1,4.2994757E0,1.6393604E1,7.8186746E0,-5.2050103E-2,2.9591203E0,-5.3790037E-2,-3.2608685E-1,1.9424261E0,1.580108E0,5.5134994E-1,9.60723E-2,7.46371E-1,5.8378024E0,1.887195E0],"split_indices":[82,153,66,152,109,57,68,0,0,0,0,0,0,0,0],"split_type":[0,0,0,0,0,0,0,0,0,0,0,0,0,0,0],"sum_hessian":[3.4918E4,1.5202E4,1.9716E4,1.4458E4,7.44E2,1.9613E4,1.03E2,1.4192E4,2.66E2,3.67E2,3.77E2,1.7874E4,1.739E3,2.6E1,7.7E1],"tree_param":{"num_deleted":"0","num_feature":"300","num_nodes":"15","size_leaf_vector":"1"}},{"base_weights":[6.5483054E-4,8.251605E-1,-4.320816E0,2.5139577E0,-2.3732035E0,-6.758847E0,1.3459737E1,3.2553512E-1,-6.7250687E-1,-5.014346E-1,-5.4517206E-2,-1.1820773E0,-3.2212016E-1,-3.9664574E0,1.4075807E0],"categories":[],"categories_nodes":[],"categories_segments":[],"categories_sizes":[],"default_left":[0,0,0,0,0,0,0,0,0,0,0,0,0,0,0],"id":36,"left_children":[1,3,5,7,9,11,13,-1,-1,-1,-1,-1,-1,-1,-1],"loss_changes":[1.2442265E5,1.5840167E5,2.4263169E5,1.3148239E5,4.8925145E4,8.808375E4,2.2649906E4,0E0,0E0,0E0,0E0,0E0,0E0,0E0,0E0],"parents":[2147483647,0,0,1,1,2,2,3,3,4,4,5,5,6,6],"right_children":[2,4,6,8,10,12,14,-1,-1,-1,-1,-1,-1,-1,-1],"split_conditions":[9.80938E-2,-4.274252E-2,-1.0051181E-3,4.848078E0,8.4310615E-1,-6.259667E-2,-2.233332E0,3.2553512E-1,-6.7250687E-1,-5.014346E-1,-5.4517206E-2,-1.1820773E0,-3.2212016E-1,-3.9664574E0,1.4075807E0],"split_indices":[133,263,263,155,16,278,0,0,0,0,0,0,0,0,0],"split_type":[0,0,0,0,0,0,0,0,0,0,0,0,0,0,0],"sum_hessian":[3.4918E4,2.9324E4,5.594E3,1.9191E4,1.0133E4,4.92E3,6.74E2,1.7766E4,1.425E3,4.144E3,5.989E3,2.023E3,2.897E3,7E0,6.67E2],"tree_param":{"num_deleted":"0","num_feature":"300","num_nodes":"15","size_leaf_vector":"1"}},{"base_weights":[4.4784998E-4,-5.545543E-1,6.552404E0,-1.3425495E-1,-2.091853E1,6.6991653E0,-3.851402E1,2.8741429E-2,-1.0606116E0,-3.0085945E0,-1.2547718E0,5.9256244E-1,1.3157808E0,-5.7255397E0,1.8053879E0],"categories":[],"categories_nodes":[],"categories_segments":[],"categories_sizes":[],"default_left":[0,0,0,0,0,0,0,0,0,0,0,0,0,0,0],"id":37,"left_children":[1,3,5,7,9,11,13,-1,-1,-1,-1,-1,-1,-1,-1],"loss_changes":[1.2698133E5,2.7553594E5,1.829446E4,1.3928625E5,4.9579406E4,1.3506227E4,1.0575128E4,0E0,0E0,0E0,0E0,0E0,0E0,0E0,0E0],"parents":[2147483647,0,0,1,1,2,2,3,3,4,4,5,5,6,6],"right_children":[2,4,6,8,10,12,14,-1,-1,-1,-1,-1,-1,-1,-1],"split_conditions":[6.373613E-2,4.848078E0,3.964047E0,4.022941E0,8.141479E-1,1.1547322E0,1.6517523E-1,2.8741429E-2,-1.0606116E0,-3.0085945E0,-1.2547718E0,5.9256244E-1,1.3157808E0,-5.7255397E0,1.8053879E0],"split_indices":[163,155,104,154,102,88,5,0,0,0,0,0,0,0,0],"split_type":[0,0,0,0,0,0,0,0,0,0,0,0,0,0,0],"sum_hessian":[3.4918E4,3.2192E4,2.726E3,3.1542E4,6.5E2,2.718E3,8E0,3.0322E4,1.22E3,3.09E2,3.41E2,2.429E3,2.89E2,6E0,2E0],"tree_param":{"num_deleted":"0","num_feature":"300","num_nodes":"15","size_leaf_vector":"1"}},{"base_weights":[1.9266586E-4,-5.383724E-1,6.292972E0,-1.2749293E-1,-1.9563715E1,6.5019145E0,-1.9939941E1,-7.000615E-2,5.884941E-1,-2.6363928E0,-8.681388E-1,5.9249985E-1,1.8587984E0,-2.4200127E0,3.4761968E0],"categories":[],"categories_nodes":[],"categories_segments":[],"categories_sizes":[],"default_left":[0,0,0,0,0,0,0,0,0,0,0,0,0,0,0],"id":38,"left_children":[1,3,5,7,9,11,13,-1,-1,-1,-1,-1,-1,-1,-1],"loss_changes":[1.1834636E5,2.5145088E5,1.52193125E4,1.08402516E5,5.0092562E4,1.8939148E4,5.968128E3,0E0,0E0,0E0,0E0,0E0,0E0,0E0,0E0],"parents":[2147483647,0,0,1,1,2,2,3,3,4,4,5,5,6,6],"right_children":[2,4,6,8,10,12,14,-1,-1,-1,-1,-1,-1,-1,-1],"split_conditions":[5.227348E-2,4.807769E0,3.9797794E-2,4.9562108E-2,1.1218096E0,1.9977851E-1,1.7657071E0,-7.000615E-2,5.884941E-1,-2.6363928E0,-8.681388E-1,5.9249985E-1,1.8587984E0,-2.4200127E0,3.4761968E0],"split_indices":[179,171,128,163,274,145,2,0,0,0,0,0,0,0,0],"split_type":[0,0,0,0,0,0,0,0,0,0,0,0,0,0,0],"sum_hessian":[3.4918E4,3.2166E4,2.752E3,3.1487E4,6.79E2,2.731E3,2.1E1,2.875E4,2.737E3,4.17E2,2.62E2,2.608E3,1.23E2,2E1,1E0],"tree_param":{"num_deleted":"0","num_feature":"300","num_nodes":"15","size_leaf_vector":"1"}},{"base_weights":[1.8887225E-4,7.344342E-1,-3.8482015E0,2.243164E0,-2.1229053E0,-6.042011E0,1.2151181E1,2.884656E-1,-5.750966E-1,-2.7135703E-1,4.9345922E-1,-7.167919E-1,8.1998456E-1,8.5419554E-1,2.145518E0],"categories":[],"categories_nodes":[],"categories_segments":[],"categories_sizes":[],"default_left":[0,0,0,0,0,0,0,0,0,0,0,0,0,0,0],"id":39,"left_children":[1,3,5,7,9,11,13,-1,-1,-1,-1,-1,-1,-1,-1],"loss_changes":[9.867215E4,1.2642347E5,1.9645566E5,9.843642E4,4.2258145E4,7.896714E4,2.2483383E4,0E0,0E0,0E0,0E0,0E0,0E0,0E0,0E0],"parents":[2147483647,0,0,1,1,2,2,3,3,4,4,5,5,6,6],"right_children":[2,4,6,8,10,12,14,-1,-1,-1,-1,-1,-1,-1,-1],"split_conditions":[9.80938E-2,-4.274252E-2,-1.0051181E-3,4.848078E0,5.227348E-2,4.022941E0,1.7572141E0,2.884656E-1,-5.750966E-1,-2.7135703E-1,4.9345922E-1,-7.167919E-1,8.1998456E-1,8.5419554E-1,2.145518E0],"split_indices":[133,263,263,155,179,237,280,0,0,0,0,0,0,0,0],"split_type":[0,0,0,0,0,0,0,0,0,0,0,0,0,0,0],"sum_hessian":[3.4918E4,2.9324E4,5.594E3,1.9191E4,1.0133E4,4.92E3,6.74E2,1.7766E4,1.425E3,9.351E3,7.82E2,4.56E3,3.6E2,4.87E2,1.87E2],"tree_param":{"num_deleted":"0","num_feature":"300","num_nodes":"15","size_leaf_vector":"1"}},{"base_weights":[2.5550858E-4,-2.5722544E0,9.8827064E-1,-2.929063E0,2.4534464E1,1.9851921E0,-1.1764864E0,-3.5403687E-1,9.461137E-1,5.5572176E0,1.5508299E0,2.6719925E-1,-4.2476264E-1,-5.8502823E-2,-9.9390167E-1],"categories":[],"categories_nodes":[],"categories_segments":[],"categories_sizes":[],"default_left":[0,0,0,0,0,0,0,0,0,0,0,0,0,0,0],"id":40,"left_children":[1,3,5,7,9,11,13,-1,-1,-1,-1,-1,-1,-1,-1],"loss_changes":[8.875542E4,9.3792664E4,5.445102E4,7.2480695E4,3.4437258E4,7.396047E4,4.1227508E4,0E0,0E0,0E0,0E0,0E0,0E0,0E0,0E0],"parents":[2147483647,0,0,1,1,2,2,3,3,4,4,5,5,6,6],"right_children":[2,4,6,8,10,12,14,-1,-1,-1,-1,-1,-1,-1,-1],"split_conditions":[-1.3153518E0,1.6683645E1,-6.31524E-1,6.373613E-2,-5.9726935E-2,1.62501E-1,3.4009445E-2,-3.5403687E-1,9.461137E-1,5.5572176E0,1.5508299E0,2.6719925E-1,-4.2476264E-1,-5.8502823E-2,-9.9390167E-1],"split_indices":[85,21,80,163,23,133,194,0,0,0,0,0,0,0,0],"split_type":[0,0,0,0,0,0,0,0,0,0,0,0,0,0,0],"sum_hessian":[3.4918E4,9.689E3,2.5229E4,9.564E3,1.25E2,1.7274E4,7.955E3,9.115E3,4.49E2,2.7E1,9.8E1,1.556E4,1.714E3,7.453E3,5.02E2],"tree_param":{"num_deleted":"0","num_feature":"300","num_nodes":"15","size_leaf_vector":"1"}},{"base_weights":[4.1597034E-4,-1.7557291E0,1.3545101E0,-2.3093834E0,8.162652E0,1.2391319E0,2.3101368E1,-2.8678188E-1,7.9299456E-1,1.3815567E0,3.8182884E-1,6.085635E-2,5.282547E-1,3.2320201E0,-5.7982224E-1],"categories":[],"categories_nodes":[],"categories_segments":[],"categories_sizes":[],"default_left":[0,0,0,0,0,0,0,0,0,0,0,0,0,0,0],"id":41,"left_children":[1,3,5,7,9,11,13,-1,-1,-1,-1,-1,-1,-1,-1],"loss_changes":[8.303926E4,8.350392E4,4.944356E4,8.236195E4,1.9692133E4,5.0005617E4,2.7895133E4,0E0,0E0,0E0,0E0,0E0,0E0,0E0,0E0],"parents":[2147483647,0,0,1,1,2,2,3,3,4,4,5,5,6,6],"right_children":[2,4,6,8,10,12,14,-1,-1,-1,-1,-1,-1,-1,-1],"split_conditions":[-9.906704E-1,4.194423E0,1.6393604E1,4.2994757E0,-5.14137E-2,2.9597288E-2,4.2994757E0,-2.8678188E-1,7.9299456E-1,1.3815567E0,3.8182884E-1,6.085635E-2,5.282547E-1,3.2320201E0,-5.7982224E-1],"split_indices":[82,169,66,153,128,271,153,0,0,0,0,0,0,0,0],"split_type":[0,0,0,0,0,0,0,0,0,0,0,0,0,0,0],"sum_hessian":[3.4918E4,1.5202E4,1.9716E4,1.4399E4,8.03E2,1.9613E4,1.03E2,1.3655E4,7.44E2,3.48E2,4.55E2,1.6968E4,2.645E3,7.8E1,2.5E1],"tree_param":{"num_deleted":"0","num_feature":"300","num_nodes":"15","size_leaf_vector":"1"}},{"base_weights":[5.3223566E-4,2.9562187E-1,-7.209499E0,-2.1160154E0,1.1016632E0,-1.2129475E1,2.7436166E0,-4.496967E-1,1.0997927E-1,2.0638202E-1,-9.898888E-2,-1.2482017E0,9.9491996E-1,3.4875533E-1,-3.9259794E0],"categories":[],"categories_nodes":[],"categories_segments":[],"categories_sizes":[],"default_left":[0,0,0,0,0,0,0,0,0,0,0,0,0,0,0],"id":42,"left_children":[1,3,5,7,9,11,13,-1,-1,-1,-1,-1,-1,-1,-1],"loss_changes":[7.4295984E4,6.5213656E4,6.726785E4,6.4351707E4,5.060186E4,7.2773594E3,1.4354703E4,0E0,0E0,0E0,0E0,0E0,0E0,0E0,0E0],"parents":[2147483647,0,0,1,1,2,2,3,3,4,4,5,5,6,6],"right_children":[2,4,6,8,10,12,14,-1,-1,-1,-1,-1,-1,-1,-1],"split_conditions":[4.9447384E0,-7.267337E-2,-2.7543984E-2,2.7131265E-1,1.4841379E-1,5.7221746E0,9.062288E-1,-4.496967E-1,1.0997927E-1,2.0638202E-1,-9.898888E-2,-1.2482017E0,9.9491996E-1,3.4875533E-1,-3.9259794E0],"split_indices":[213,293,278,39,137,123,105,0,0,0,0,0,0,0,0],"split_type":[0,0,0,0,0,0,0,0,0,0,0,0,0,0,0],"sum_hessian":[3.4918E4,3.3546E4,1.372E3,8.403E3,2.5143E4,9.18E2,4.54E2,4.828E3,3.575E3,1.7221E4,7.922E3,9.04E2,1.4E1,4.47E2,7E0],"tree_param":{"num_deleted":"0","num_feature":"300","num_nodes":"15","size_leaf_vector":"1"}},{"base_weights":[3.6514166E-4,-4.2349073E-1,4.9528427E0,-4.6650812E-2,-1.7872772E1,5.043701E0,-5.8750298E1,-1.3250544E-2,2.7175806E0,-2.6031468E0,-1.0925928E0,4.5463935E-1,1.5195216E0,1.3014297E0,-8.700993E0],"categories":[],"categories_nodes":[],"categories_segments":[],"categories_sizes":[],"default_left":[0,0,0,0,0,0,0,0,0,0,0,0,0,0,0],"id":43,"left_children":[1,3,5,7,9,11,13,-1,-1,-1,-1,-1,-1,-1,-1],"loss_changes":[7.330184E4,2.1151603E5,1.6230531E4,7.359652E4,3.825608E4,1.3814086E4,9.244536E3,0E0,0E0,0E0,0E0,0E0,0E0,0E0,0E0],"parents":[2147483647,0,0,1,1,2,2,3,3,4,4,5,5,6,6],"right_children":[2,4,6,8,10,12,14,-1,-1,-1,-1,-1,-1,-1,-1],"split_conditions":[5.227348E-2,4.807769E0,6.6058685E1,1.6683645E1,-9.926174E-1,1.9977851E-1,-5.499504E-1,-1.3250544E-2,2.7175806E0,-2.6031468E0,-1.0925928E0,4.5463935E-1,1.5195216E0,1.3014297E0,-8.700993E0],"split_indices":[179,171,269,21,82,145,0,0,0,0,0,0,0,0,0],"split_type":[0,0,0,0,0,0,0,0,0,0,0,0,0,0,0],"sum_hessian":[3.4918E4,3.2166E4,2.752E3,3.1487E4,6.79E2,2.749E3,3E0,3.1389E4,9.8E1,3.11E2,3.68E2,2.622E3,1.27E2,1E0,2E0],"tree_param":{"num_deleted":"0","num_feature":"300","num_nodes":"15","size_leaf_vector":"1"}},{"base_weights":[1.4434235E-4,-4.113657E-1,4.8581357E0,-8.10665E-2,-8.7897E0,4.992626E0,-3.6312706E1,-2.5515673E-1,7.65354E-2,-1.2996463E0,-5.356323E-1,3.8278997E-1,8.541855E-1,8.0080837E-1,-5.9807787E0],"categories":[],"categories_nodes":[],"categories_segments":[],"categories_sizes":[],"default_left":[0,0,0,0,0,0,0,0,0,0,0,0,0,0,0],"id":44,"left_children":[1,3,5,7,9,11,13,-1,-1,-1,-1,-1,-1,-1,-1],"loss_changes":[6.9809E4,8.908881E4,1.5280926E4,6.4769047E4,1.7565781E4,1.120732E4,9.850829E3,0E0,0E0,0E0,0E0,0E0,0E0,0E0,0E0],"parents":[2147483647,0,0,1,1,2,2,3,3,4,4,5,5,6,6],"right_children":[2,4,6,8,10,12,14,-1,-1,-1,-1,-1,-1,-1,-1],"split_conditions":[6.373613E-2,4.022941E0,3.964047E0,-1.4822187E0,1.01754874E-1,7.752173E-2,-4.935135E-2,-2.5515673E-1,7.65354E-2,-1.2996463E0,-5.356323E-1,3.8278997E-1,8.541855E-1,8.0080837E-1,-5.9807787E0],"split_indices":[163,154,104,105,139,46,23,0,0,0,0,0,0,0,0],"split_type":[0,0,0,0,0,0,0,0,0,0,0,0,0,0,0],"sum_hessian":[3.4918E4,3.2192E4,2.726E3,3.0972E4,1.22E3,2.718E3,8E0,7.903E3,2.3069E4,5.47E2,6.73E2,2.048E3,6.7E2,3E0,5E0],"tree_param":{"num_deleted":"0","num_feature":"300","num_nodes":"15","size_leaf_vector":"1"}},{"base_weights":[-4.2822405E-5,-3.2592338E-1,5.271592E0,-1.7650624E-1,-2.0565327E1,4.8979745E0,5.8802765E1,-3.203645E-2,1.9249886E0,-2.1233516E0,-9.816081E-2,4.1654393E-1,2.960607E0,6.0635962E0,1.7485619E0],"categories":[],"categories_nodes":[],"categories_segments":[],"categories_sizes":[],"default_left":[0,0,0,0,0,0,0,0,0,0,0,0,0,0,0],"id":45,"left_children":[1,3,5,7,9,11,13,-1,-1,-1,-1,-1,-1,-1,-1],"loss_changes":[5.998989E4,9.9450414E4,4.0372387E4,9.124299E4,3.1327969E3,3.6437797E4,1.328125E-1,0E0,0E0,0E0,0E0,0E0,0E0,0E0,0E0],"parents":[2147483647,0,0,1,1,2,2,3,3,4,4,5,5,6,6],"right_children":[2,4,6,8,10,12,14,-1,-1,-1,-1,-1,-1,-1,-1],"split_conditions":[4.022941E0,7.5628476E0,1.6683645E1,7.8186746E0,2.0856729E0,2.4932523E0,1.756582E-1,-3.203645E-2,1.9249886E0,-2.1233516E0,-9.816081E-2,4.1654393E-1,2.960607E0,6.0635962E0,1.7485619E0],"split_indices":[237,210,21,152,108,55,28,0,0,0,0,0,0,0,0],"split_type":[0,0,0,0,0,0,0,0,0,0,0,0,0,0,0],"sum_hessian":[3.4918E4,3.2886E4,2.032E3,3.2646E4,2.4E2,2.019E3,1.3E1,3.2407E4,2.39E2,2.32E2,8E0,1.962E3,5.7E1,1.2E1,1E0],"tree_param":{"num_deleted":"0","num_feature":"300","num_nodes":"15","size_leaf_vector":"1"}},{"base_weights":[2.7441196E-4,-3.819094E-1,4.465842E0,1.436103E-2,-1.0248799E1,4.5500007E0,-5.4509758E1,6.6702686E-2,-2.9406604E-1,-1.5867714E0,-6.0851145E-1,9.134971E-1,3.481833E-1,1.2507187E0,-8.10178E0],"categories":[],"categories_nodes":[],"categories_segments":[],"categories_sizes":[],"default_left":[0,0,0,0,0,0,0,0,0,0,0,0,0,0,0],"id":46,"left_children":[1,3,5,7,9,11,13,-1,-1,-1,-1,-1,-1,-1,-1],"loss_changes":[5.9596832E4,1.25771734E5,1.3912016E4,5.9647113E4,2.8960523E4,1.3436363E4,8.119257E3,0E0,0E0,0E0,0E0,0E0,0E0,0E0,0E0],"parents":[2147483647,0,0,1,1,2,2,3,3,4,4,5,5,6,6],"right_children":[2,4,6,8,10,12,14,-1,-1,-1,-1,-1,-1,-1,-1],"split_conditions":[5.227348E-2,4.0324316E0,6.6058685E1,9.80938E-2,1.01754874E-1,9.0927444E-2,-5.499504E-1,6.6702686E-2,-2.9406604E-1,-1.5867714E0,-6.0851145E-1,9.134971E-1,3.481833E-1,1.2507187E0,-8.10178E0],"split_indices":[179,170,269,133,139,110,0,0,0,0,0,0,0,0,0],"split_type":[0,0,0,0,0,0,0,0,0,0,0,0,0,0,0],"sum_hessian":[3.4918E4,3.2166E4,2.752E3,3.0925E4,1.241E3,2.749E3,3E0,2.5331E4,5.594E3,5.27E2,7.14E2,5.18E2,2.231E3,1E0,2E0],"tree_param":{"num_deleted":"0","num_feature":"300","num_nodes":"15","size_leaf_vector":"1"}},{"base_weights":[1.8849427E-5,-1.4036624E0,1.0823421E0,-1.6893578E0,1.3556656E1,6.337459E-1,5.740176E0,-2.1652699E-1,6.6684335E-1,1.6818312E0,-1.8233168E0,-2.1423076E-3,4.4202995E-1,4.994466E-1,2.7969046E0],"categories":[],"categories_nodes":[],"categories_segments":[],"categories_sizes":[],"default_left":[0,0,0,0,0,0,0,0,0,0,0,0,0,0,0],"id":47,"left_children":[1,3,5,7,9,11,13,-1,-1,-1,-1,-1,-1,-1,-1],"loss_changes":[5.3051754E4,6.5001914E4,4.1194773E4,5.935585E4,2.9857578E4,4.462035E4,2.8570469E4,0E0,0E0,0E0,0E0,0E0,0E0,0E0,0E0],"parents":[2147483647,0,0,1,1,2,2,3,3,4,4,5,5,6,6],"right_children":[2,4,6,8,10,12,14,-1,-1,-1,-1,-1,-1,-1,-1],"split_conditions":[-9.906704E-1,7.4995084E0,2.959681E0,4.194423E0,-3.542112E-1,2.9597288E-2,2.4923098E0,-2.1652699E-1,6.6684335E-1,1.6818312E0,-1.8233168E0,-2.1423076E-3,4.4202995E-1,4.994466E-1,2.7969046E0],"split_indices":[82,168,98,169,121,271,96,0,0,0,0,0,0,0,0],"split_type":[0,0,0,0,0,0,0,0,0,0,0,0,0,0,0],"sum_hessian":[3.4918E4,1.5202E4,1.9716E4,1.4918E4,2.84E2,1.7985E4,1.731E3,1.4115E4,8.03E2,2.58E2,2.6E1,1.5333E4,2.652E3,1.676E3,5.5E1],"tree_param":{"num_deleted":"0","num_feature":"300","num_nodes":"15","size_leaf_vector":"1"}},{"base_weights":[1.3239017E-4,-3.6975175E-1,4.3476896E0,6.1628595E-2,-5.395425E0,4.4695354E0,-3.309533E1,-1.1638408E-1,1.6270044E-1,-1.0355847E-1,-1.8124026E0,3.8687187E-1,1.0260755E0,-4.556249E0,3.3320978E0],"categories":[],"categories_nodes":[],"categories_segments":[],"categories_sizes":[],"default_left":[0,0,0,0,0,0,0,0,0,0,0,0,0,0,0],"id":48,"left_children":[1,3,5,7,9,11,13,-1,-1,-1,-1,-1,-1,-1,-1],"loss_changes":[5.6154586E4,6.977016E4,1.2639449E4,5.6858984E4,1.4115966E5,9.459234E3,8.970392E3,0E0,0E0,0E0,0E0,0E0,0E0,0E0,0E0],"parents":[2147483647,0,0,1,1,2,2,3,3,4,4,5,5,6,6],"right_children":[2,4,6,8,10,12,14,-1,-1,-1,-1,-1,-1,-1,-1],"split_conditions":[4.9562108E-2,-7.1403836E-3,3.964047E0,1.1218096E0,-5.067736E-1,1.9404216E0,8.2445884E-1,-1.1638408E-1,1.6270044E-1,-1.0355847E-1,-1.8124026E0,3.8687187E-1,1.0260755E0,-4.556249E0,3.3320978E0],"split_indices":[163,163,104,274,81,67,2,0,0,0,0,0,0,0,0],"split_type":[0,0,0,0,0,0,0,0,0,0,0,0,0,0,0],"sum_hessian":[3.4918E4,3.2181E4,2.737E3,2.9638E4,2.543E3,2.729E3,8E0,1.6624E4,1.3014E4,1.895E3,6.48E2,2.474E3,2.55E2,7E0,1E0],"tree_param":{"num_deleted":"0","num_feature":"300","num_nodes":"15","size_leaf_vector":"1"}},{"base_weights":[7.131481E-5,2.5335014E-1,-6.1883807E0,4.9899384E-1,-5.2801847E0,-1.038167E1,2.2947419E0,1.1045473E-1,-1.8744257E-1,-1.6284087E0,3.957986E-1,-1.1448092E0,-2.5954995E-1,-1.7867057E-1,1.0128969E0],"categories":[],"categories_nodes":[],"categories_segments":[],"categories_sizes":[],"default_left":[0,0,0,0,0,0,0,0,0,0,0,0,0,0,0],"id":49,"left_children":[1,3,5,7,9,11,13,-1,-1,-1,-1,-1,-1,-1,-1],"loss_changes":[5.4733746E4,4.5602336E4,4.8864434E4,4.616885E4,1.450258E5,7.6010625E3,1.4566717E4,0E0,0E0,0E0,0E0,0E0,0E0,0E0,0E0],"parents":[2147483647,0,0,1,1,2,2,3,3,4,4,5,5,6,6],"right_children":[2,4,6,8,10,12,14,-1,-1,-1,-1,-1,-1,-1,-1],"split_conditions":[4.9447384E0,4.848078E0,-2.7543984E-2,1.4464138E0,-5.453966E-2,2.5686542E-2,6.012022E-1,1.1045473E-1,-1.8744257E-1,-1.6284087E0,3.957986E-1,-1.1448092E0,-2.5954995E-1,-1.7867057E-1,1.0128969E0],"split_indices":[213,155,278,59,23,284,49,0,0,0,0,0,0,0,0],"split_type":[0,0,0,0,0,0,0,0,0,0,0,0,0,0,0],"sum_hessian":[3.4918E4,3.3546E4,1.372E3,3.2121E4,1.425E3,9.18E2,4.54E2,2.5592E4,6.529E3,6.5E2,7.75E2,8.07E2,1.11E2,2.99E2,1.55E2],"tree_param":{"num_deleted":"0","num_feature":"300","num_nodes":"15","size_leaf_vector":"1"}},{"base_weights":[7.0160977E-6,2.2797266E-1,-5.5699587E0,4.8014906E-1,-5.358527E0,-8.810437E0,3.4032266E0,4.0678926E-2,1.954801E0,-1.6085526E0,4.1216254E-1,-1.0719184E0,-3.355516E-1,4.0384609E-1,-4.314133E0],"categories":[],"categories_nodes":[],"categories_segments":[],"categories_sizes":[],"default_left":[0,0,0,0,0,0,0,0,0,0,0,0,0,0,0],"id":50,"left_children":[1,3,5,7,9,11,13,-1,-1,-1,-1,-1,-1,-1,-1],"loss_changes":[4.4340047E4,4.726303E4,3.9953277E4,4.48926E4,1.4742031E5,1.0469797E4,1.0966068E4,0E0,0E0,0E0,0E0,0E0,0E0,0E0,0E0],"parents":[2147483647,0,0,1,1,2,2,3,3,4,4,5,5,6,6],"right_children":[2,4,6,8,10,12,14,-1,-1,-1,-1,-1,-1,-1,-1],"split_conditions":[4.9447384E0,4.807769E0,-1.3523402E-2,1.6683645E1,-5.453966E-2,-4.1739754E-2,9.0509576E-1,4.0678926E-2,1.954801E0,-1.6085526E0,4.1216254E-1,-1.0719184E0,-3.355516E-1,4.0384609E-1,-4.314133E0],"split_indices":[213,171,278,21,23,128,64,0,0,0,0,0,0,0,0],"split_type":[0,0,0,0,0,0,0,0,0,0,0,0,0,0,0],"sum_hessian":[3.4918E4,3.3546E4,1.372E3,3.2098E4,1.448E3,1.008E3,3.64E2,3.1976E4,1.22E2,6.79E2,7.69E2,7.46E2,2.62E2,3.6E2,4E0],"tree_param":{"num_deleted":"0","num_feature":"300","num_nodes":"15","size_leaf_vector":"1"}},{"base_weights":[-1.24E-4,-1.4251117E0,8.569598E-1,-1.7994668E0,7.555712E0,1.1526227E0,-4.2796273E0,-1.9541252E-1,2.336089E0,6.18154E-1,2.2076185E0,8.485952E-2,5.1922494E-1,-1.0268519E0,4.0268275E-1],"categories":[],"categories_nodes":[],"categories_segments":[],"categories_sizes":[],"default_left":[0,0,0,0,0,0,0,0,0,0,0,0,0,0,0],"id":51,"left_children":[1,3,5,7,9,11,13,-1,-1,-1,-1,-1,-1,-1,-1],"loss_changes":[4.2648977E4,4.4106477E4,3.312014E4,4.904046E4,1.0339191E4,2.5318973E4,5.909039E4,0E0,0E0,0E0,0E0,0E0,0E0,0E0,0E0],"parents":[2147483647,0,0,1,1,2,2,3,3,4,4,5,5,6,6],"right_children":[2,4,6,8,10,12,14,-1,-1,-1,-1,-1,-1,-1,-1],"split_conditions":[5.5518997E-1,7.7913E-2,4.0324316E0,1.6627827E1,2.0166574E0,2.7753377E0,-5.2663624E-2,-1.9541252E-1,2.336089E0,6.18154E-1,2.2076185E0,8.485952E-2,5.1922494E-1,-1.0268519E0,4.0268275E-1],"split_indices":[64,163,170,66,121,135,109,0,0,0,0,0,0,0,0],"split_type":[0,0,0,0,0,0,0,0,0,0,0,0,0,0,0],"sum_hessian":[3.4918E4,1.3114E4,2.1804E4,1.259E4,5.24E2,2.0618E4,1.186E3,1.2514E4,7.6E1,4.8E2,4.4E1,1.9176E4,1.442E3,6.89E2,4.97E2],"tree_param":{"num_deleted":"0","num_feature":"300","num_nodes":"15","size_leaf_vector":"1"}},{"base_weights":[3.1278356E-5,-3.4407797E-1,3.2152512E0,-7.186328E-1,3.5732946E0,4.948187E0,-8.034828E0,-3.690905E-2,-8.4718704E-1,2.7870902E-1,9.992534E-1,5.6555E-1,-8.958953E-1,-7.385332E-1,-3.9111755E0],"categories":[],"categories_nodes":[],"categories_segments":[],"categories_sizes":[],"default_left":[0,0,0,0,0,0,0,0,0,0,0,0,0,0,0],"id":52,"left_children":[1,3,5,7,9,11,13,-1,-1,-1,-1,-1,-1,-1,-1],"loss_changes":[3.863503E4,4.6286156E4,6.585714E4,7.802563E4,1.3866078E4,2.8832844E4,8.814297E3,0E0,0E0,0E0,0E0,0E0,0E0,0E0,0E0],"parents":[2147483647,0,0,1,1,2,2,3,3,4,4,5,5,6,6],"right_children":[2,4,6,8,10,12,14,-1,-1,-1,-1,-1,-1,-1,-1],"split_conditions":[3.0571349E0,5.227348E-2,-1.0051181E-3,4.0324316E0,8.6472327E-1,2.301384E0,1.9020304E-1,-3.690905E-2,-8.4718704E-1,2.7870902E-1,9.992534E-1,5.6555E-1,-8.958953E-1,-7.385332E-1,-3.9111755E0],"split_indices":[187,179,263,170,127,36,28,0,0,0,0,0,0,0,0],"split_type":[0,0,0,0,0,0,0,0,0,0,0,0,0,0,0],"sum_hessian":[3.4918E4,3.1543E4,3.375E3,2.8791E4,2.752E3,2.925E3,4.5E2,2.755E4,1.241E3,2.453E3,2.99E2,2.784E3,1.41E2,4.42E2,8E0],"tree_param":{"num_deleted":"0","num_feature":"300","num_nodes":"15","size_leaf_vector":"1"}},{"base_weights":[-1.0138471E-4,-1.352147E-1,8.245171E0,-4.570553E-1,3.5845876E0,1.6928461E1,-1.3760948E0,-1.594459E-2,-1.4659977E0,3.6945918E-1,-3.0157201E0,1.834503E0,4.2273092E-1,-8.4017766E-1,7.1005553E-1],"categories":[],"categories_nodes":[],"categories_segments":[],"categories_sizes":[],"default_left":[0,0,0,0,0,0,0,0,0,0,0,0,0,0,0],"id":53,"left_children":[1,3,5,7,9,11,13,-1,-1,-1,-1,-1,-1,-1,-1],"loss_changes":[3.890249E4,4.113327E4,4.70587E4,1.3366142E5,1.0266738E4,5.2481094E3,1.6020194E4,0E0,0E0,0E0,0E0,0E0,0E0,0E0,0E0],"parents":[2147483647,0,0,1,1,2,2,3,3,4,4,5,5,6,6],"right_children":[2,4,6,8,10,12,14,-1,-1,-1,-1,-1,-1,-1,-1],"split_conditions":[7.8186746E0,4.9562108E-2,1.1218096E0,4.848078E0,3.964047E0,7.6235116E-1,1.2528487E-1,-1.594459E-2,-1.4659977E0,3.6945918E-1,-3.0157201E0,1.834503E0,4.2273092E-1,-8.4017766E-1,7.1005553E-1],"split_indices":[152,163,274,155,104,64,28,0,0,0,0,0,0,0,0],"split_type":[0,0,0,0,0,0,0,0,0,0,0,0,0,0,0],"sum_hessian":[3.4918E4,3.4356E4,5.62E2,3.1621E4,2.735E3,2.95E2,2.67E2,3.0973E4,6.48E2,2.727E3,8E0,2.65E2,3E1,1.46E2,1.21E2],"tree_param":{"num_deleted":"0","num_feature":"300","num_nodes":"15","size_leaf_vector":"1"}},{"base_weights":[-1.479708E-4,2.146181E-1,-4.961111E0,7.2960246E-1,-2.351322E0,-1.2422428E1,3.7085268E0,1.425537E-1,-2.6703024E-1,-4.2920133E-1,1.1800519E0,-1.6947905E0,-5.702525E-1,4.0652227E-1,-7.7070856E0],"categories":[],"categories_nodes":[],"categories_segments":[],"categories_sizes":[],"default_left":[0,0,0,0,0,0,0,0,0,0,0,0,0,0,0],"id":54,"left_children":[1,3,5,7,9,11,13,-1,-1,-1,-1,-1,-1,-1,-1],"loss_changes":[3.7205395E4,4.4230926E4,9.37774E4,6.596388E4,1.537137E5,2.3593352E4,1.9647293E4,0E0,0E0,0E0,0E0,0E0,0E0,0E0,0E0],"parents":[2147483647,0,0,1,1,2,2,3,3,4,4,5,5,6,6],"right_children":[2,4,6,8,10,12,14,-1,-1,-1,-1,-1,-1,-1,-1],"split_conditions":[4.807769E0,9.80938E-2,-5.2449055E-2,-1.0055355E-3,-1.0051181E-3,1.1218096E0,1.1850243E1,1.425537E-1,-2.6703024E-1,-4.2920133E-1,1.1800519E0,-1.6947905E0,-5.702525E-1,4.0652227E-1,-7.7070856E0],"split_indices":[171,133,109,263,263,274,44,0,0,0,0,0,0,0,0],"split_type":[0,0,0,0,0,0,0,0,0,0,0,0,0,0,0],"sum_hessian":[3.4918E4,3.347E4,1.448E3,2.7876E4,5.594E3,7.78E2,6.7E2,2.314E4,4.736E3,4.92E3,6.74E2,4.64E2,3.14E2,6.68E2,2E0],"tree_param":{"num_deleted":"0","num_feature":"300","num_nodes":"15","size_leaf_vector":"1"}},{"base_weights":[-3.8816073E-4,-2.0327345E-2,4.9713722E1,-1.2969495E0,7.467593E-1,3.222052E0,6.2603993E0,-3.264389E-1,1.9889103E-2,1.3591729E-1,-9.731773E-2],"categories":[],"categories_nodes":[],"categories_segments":[],"categories_sizes":[],"default_left":[0,0,0,0,0,0,0,0,0,0,0],"id":55,"left_children":[1,3,5,7,9,-1,-1,-1,-1,-1,-1],"loss_changes":[3.4614777E4,3.418371E4,1.1397539E3,3.8559516E4,2.29688E4,0E0,0E0,0E0,0E0,0E0,0E0],"parents":[2147483647,0,0,1,1,2,2,3,3,4,4],"right_children":[2,4,6,8,10,-1,-1,-1,-1,-1,-1],"split_conditions":[5.1816986E1,5.5518997E-1,2.2647717E0,-6.259667E-2,1.3909448E0,3.222052E0,6.2603993E0,-3.264389E-1,1.9889103E-2,1.3591729E-1,-9.731773E-2],"split_indices":[242,64,10,278,59,0,0,0,0,0,0],"split_type":[0,0,0,0,0,0,0,0,0,0,0],"sum_hessian":[3.4918E4,3.4905E4,1.3E1,1.3101E4,2.1804E4,7E0,6E0,5.658E3,7.443E3,1.6079E4,5.725E3],"tree_param":{"num_deleted":"0","num_feature":"300","num_nodes":"11","size_leaf_vector":"1"}},{"base_weights":[-8.267621E-5,-1.9471869E-2,4.834272E1,1.7336902E-1,-4.547162E0,4.9909306E0,1.3988556E0,3.8487177E-2,-4.5024362E-1,-1.3358597E0,2.8090954E-1],"categories":[],"categories_nodes":[],"categories_segments":[],"categories_sizes":[],"default_left":[0,0,0,0,0,0,0,0,0,0,0],"id":56,"left_children":[1,3,5,7,9,-1,-1,-1,-1,-1,-1],"loss_changes":[3.2731496E4,3.0478049E4,5.5304688E1,3.311263E4,9.246968E4,0E0,0E0,0E0,0E0,0E0,0E0],"parents":[2147483647,0,0,1,1,2,2,3,3,4,4],"right_children":[2,4,6,8,10,-1,-1,-1,-1,-1,-1],"split_conditions":[5.1816986E1,4.848078E0,-4.2376536E-1,4.807769E0,-5.9726935E-2,4.9909306E0,1.3988556E0,3.8487177E-2,-4.5024362E-1,-1.3358597E0,2.8090954E-1],"split_indices":[219,155,27,171,23,0,0,0,0,0,0],"split_type":[0,0,0,0,0,0,0,0,0,0,0],"sum_hessian":[3.4918E4,3.4905E4,1.3E1,3.348E4,1.425E3,1.2E1,1E0,3.2032E4,1.448E3,6.48E2,7.77E2],"tree_param":{"num_deleted":"0","num_feature":"300","num_nodes":"11","size_leaf_vector":"1"}},{"base_weights":[6.627385E-5,-2.7991155E-1,3.2714233E0,-1.215138E-2,-1.267837E1,8.340739E0,2.3217018E0,3.0136699E-2,-7.6473993E-1,-1.925689E0,-7.081687E-1,1.4227816E0,1.5715648E-1,-1.1764011E0,2.9152068E-1],"categories":[],"categories_nodes":[],"categories_segments":[],"categories_sizes":[],"default_left":[0,0,0,0,0,0,0,0,0,0,0,0,0,0,0],"id":57,"left_children":[1,3,5,7,9,11,13,-1,-1,-1,-1,-1,-1,-1,-1],"loss_changes":[3.1983484E4,1.0678828E5,1.3234791E4,7.537798E4,2.489979E4,1.7272814E4,1.9429355E4,0E0,0E0,0E0,0E0,0E0,0E0,0E0,0E0],"parents":[2147483647,0,0,1,1,2,2,3,3,4,4,5,5,6,6],"right_children":[2,4,6,8,10,12,14,-1,-1,-1,-1,-1,-1,-1,-1],"split_conditions":[5.227348E-2,4.807769E0,-5.6524202E-2,4.0324316E0,-9.926174E-1,-2.9581357E-2,5.1429175E-2,3.0136699E-2,-7.6473993E-1,-1.925689E0,-7.081687E-1,1.4227816E0,1.5715648E-1,-1.1764011E0,2.9152068E-1],"split_indices":[179,171,89,170,82,293,46,0,0,0,0,0,0,0,0],"split_type":[0,0,0,0,0,0,0,0,0,0,0,0,0,0,0],"sum_hessian":[3.4918E4,3.2166E4,2.752E3,3.1487E4,6.79E2,4.33E2,2.319E3,3.0246E4,1.241E3,3.11E2,3.68E2,2.31E2,2.02E2,9.3E1,2.226E3],"tree_param":{"num_deleted":"0","num_feature":"300","num_nodes":"15","size_leaf_vector":"1"}},{"base_weights":[-1.6213145E-5,3.306897E-1,-2.7820463E0,5.9835625E-1,-3.5110738E0,-4.5244346E0,1.0519253E1,1.0779301E-1,-3.009127E-1,-7.735489E-1,2.8376618E-1,-6.0439664E-1,8.888496E-2,1.1574467E0,-2.1662428E0],"categories":[],"categories_nodes":[],"categories_segments":[],"categories_sizes":[],"default_left":[0,0,0,0,0,0,0,0,0,0,0,0,0,0,0],"id":58,"left_children":[1,3,5,7,9,11,13,-1,-1,-1,-1,-1,-1,-1,-1],"loss_changes":[3.212758E4,3.2095709E4,8.603066E4,5.0482777E4,5.454639E4,2.699375E4,1.4852914E4,0E0,0E0,0E0,0E0,0E0,0E0,0E0,0E0],"parents":[2147483647,0,0,1,1,2,2,3,3,4,4,5,5,6,6],"right_children":[2,4,6,8,10,12,14,-1,-1,-1,-1,-1,-1,-1,-1],"split_conditions":[1.62501E-1,4.022941E0,-1.0051181E-3,-1.0051181E-3,-5.453966E-2,-4.4291772E-2,1.140766E0,1.0779301E-1,-3.009127E-1,-7.735489E-1,2.8376618E-1,-6.0439664E-1,8.888496E-2,1.1574467E0,-2.1662428E0],"split_indices":[133,154,263,263,23,89,102,0,0,0,0,0,0,0,0],"split_type":[0,0,0,0,0,0,0,0,0,0,0,0,0,0,0],"sum_hessian":[3.4918E4,3.1209E4,3.709E3,2.9177E4,2.032E3,3.28E3,4.29E2,2.5754E4,3.423E3,1.22E3,8.12E2,2.561E3,7.19E2,4.16E2,1.3E1],"tree_param":{"num_deleted":"0","num_feature":"300","num_nodes":"15","size_leaf_vector":"1"}},{"base_weights":[-7.718494E-5,-1.1568421E-1,7.0548263E0,-1.2883427E0,7.431359E-1,1.54696045E1,2.8433433E-1,-1.5613453E-1,1.3351907E0,8.47825E-2,-1.6905559E0,2.186931E0,1.1157498E0,-6.5328544E-1,7.548152E-1],"categories":[],"categories_nodes":[],"categories_segments":[],"categories_sizes":[],"default_left":[0,0,0,0,0,0,0,0,0,0,0,0,0,0,0],"id":59,"left_children":[1,3,5,7,9,11,13,-1,-1,-1,-1,-1,-1,-1,-1],"loss_changes":[2.8480629E4,3.4601984E4,3.2070943E4,5.8074766E4,3.6658285E4,6.6826367E3,1.5548699E4,0E0,0E0,0E0,0E0,0E0,0E0,0E0,0E0],"parents":[2147483647,0,0,1,1,2,2,3,3,4,4,5,5,6,6],"right_children":[2,4,6,8,10,12,14,-1,-1,-1,-1,-1,-1,-1,-1],"split_conditions":[7.8186746E0,-1.0787917E0,-1.0787917E0,7.4995084E0,1.2417372E1,-5.705339E-2,1.2528487E-1,-1.5613453E-1,1.3351907E0,8.47825E-2,-1.6905559E0,2.186931E0,1.1157498E0,-6.5328544E-1,7.548152E-1],"split_indices":[152,102,102,168,251,42,28,0,0,0,0,0,0,0,0],"split_type":[0,0,0,0,0,0,0,0,0,0,0,0,0,0,0],"sum_hessian":[3.4918E4,3.4356E4,5.62E2,1.4524E4,1.9832E4,2.5E2,3.12E2,1.4259E4,2.65E2,1.9716E4,1.16E2,9.9E1,1.51E2,1.61E2,1.51E2],"tree_param":{"num_deleted":"0","num_feature":"300","num_nodes":"15","size_leaf_vector":"1"}},{"base_weights":[1.5844338E-5,1.8946792E-1,-4.1946716E0,-3.546824E-2,4.1748276E0,-5.941476E0,1.1670984E1,-3.2420453E-2,2.9977986E-1,4.874568E-1,-1.6744589E0,-6.4699954E-1,1.6925386E0,2.3996973E0,6.3281494E-1],"categories":[],"categories_nodes":[],"categories_segments":[],"categories_sizes":[],"default_left":[0,0,0,0,0,0,0,0,0,0,0,0,0,0,0],"id":60,"left_children":[1,3,5,7,9,11,13,-1,-1,-1,-1,-1,-1,-1,-1],"loss_changes":[2.7750654E4,2.9951488E4,4.1890062E4,2.770035E4,2.621074E4,1.654591E4,9.726504E3,0E0,0E0,0E0,0E0,0E0,0E0,0E0,0E0],"parents":[2147483647,0,0,1,1,2,2,3,3,4,4,5,5,6,6],"right_children":[2,4,6,8,10,12,14,-1,-1,-1,-1,-1,-1,-1,-1],"split_conditions":[4.7069283E0,3.0978642E0,-1.0051181E-3,5.227348E-2,4.1779904E0,2.3485563E0,1.1083005E-1,-3.2420453E-2,2.9977986E-1,4.874568E-1,-1.6744589E0,-6.4699954E-1,1.6925386E0,2.3996973E0,6.3281494E-1],"split_indices":[220,57,263,179,215,36,50,0,0,0,0,0,0,0,0],"split_type":[0,0,0,0,0,0,0,0,0,0,0,0,0,0,0],"sum_hessian":[3.4918E4,3.341E4,1.508E3,3.1626E4,1.784E3,1.359E3,1.49E2,2.8878E4,2.748E3,1.727E3,5.7E1,1.329E3,3E1,4.4E1,1.05E2],"tree_param":{"num_deleted":"0","num_feature":"300","num_nodes":"15","size_leaf_vector":"1"}},{"base_weights":[1.0514489E-4,-1.7581847E-2,4.409882E1,1.5971377E-1,-4.1802864E0,5.0419536E0,2.726795E0,4.3255392E-2,-2.9710948E-1,-1.2094342E0,2.4643393E-1],"categories":[],"categories_nodes":[],"categories_segments":[],"categories_sizes":[],"default_left":[0,0,0,0,0,0,0,0,0,0,0],"id":61,"left_children":[1,3,5,7,9,-1,-1,-1,-1,-1,-1],"loss_changes":[2.7236676E4,2.5762318E4,1.1452539E2,2.8601098E4,7.501734E4,0E0,0E0,0E0,0E0,0E0,0E0],"parents":[2147483647,0,0,1,1,2,2,3,3,4,4],"right_children":[2,4,6,8,10,-1,-1,-1,-1,-1,-1],"split_conditions":[5.1816986E1,4.848078E0,2.9902624E-2,3.6841437E-2,6.373613E-2,5.0419536E0,2.726795E0,4.3255392E-2,-2.9710948E-1,-1.2094342E0,2.4643393E-1],"split_indices":[219,155,118,233,163,0,0,0,0,0,0],"split_type":[0,0,0,0,0,0,0,0,0,0,0],"sum_hessian":[3.4918E4,3.4905E4,1.3E1,3.348E4,1.425E3,8E0,5E0,3.0797E4,2.683E3,6.5E2,7.75E2],"tree_param":{"num_deleted":"0","num_feature":"300","num_nodes":"11","size_leaf_vector":"1"}},{"base_weights":[2.7926613E-4,1.7229813E-1,-4.2027197E0,3.5584104E-1,-3.8937588E0,-7.5005946E0,2.4675002E0,6.3228935E-2,-2.674099E-1,-1.1510533E0,2.8377998E-1,-8.272665E-1,8.134813E-2,-1.1724355E-1,9.451559E-1],"categories":[],"categories_nodes":[],"categories_segments":[],"categories_sizes":[],"default_left":[0,0,0,0,0,0,0,0,0,0,0,0,0,0,0],"id":62,"left_children":[1,3,5,7,9,11,13,-1,-1,-1,-1,-1,-1,-1,-1],"loss_changes":[2.5246992E4,2.5037375E4,3.0221146E4,2.688851E4,7.432689E4,5.90584E3,1.1577876E4,0E0,0E0,0E0,0E0,0E0,0E0,0E0,0E0],"parents":[2147483647,0,0,1,1,2,2,3,3,4,4,5,5,6,6],"right_children":[2,4,6,8,10,12,14,-1,-1,-1,-1,-1,-1,-1,-1],"split_conditions":[4.9447384E0,4.807769E0,-2.7543984E-2,3.6841437E-2,-5.453966E-2,7.288549E-2,6.012022E-1,6.3228935E-2,-2.674099E-1,-1.1510533E0,2.8377998E-1,-8.272665E-1,8.134813E-2,-1.1724355E-1,9.451559E-1],"split_indices":[213,171,278,233,23,46,49,0,0,0,0,0,0,0,0],"split_type":[0,0,0,0,0,0,0,0,0,0,0,0,0,0,0],"sum_hessian":[3.4918E4,3.3546E4,1.372E3,3.2098E4,1.448E3,9.18E2,4.54E2,2.9415E4,2.683E3,6.79E2,7.69E2,8.4E2,7.8E1,2.99E2,1.55E2],"tree_param":{"num_deleted":"0","num_feature":"300","num_nodes":"15","size_leaf_vector":"1"}},{"base_weights":[2.1996554E-4,-2.6528618E-1,2.4810038E0,-5.5228525E-1,2.7543807E0,5.8584566E0,2.8535476E-1,-3.1215822E-2,-1.0970136E0,2.0162416E-1,7.687615E-1,3.5843667E-1,1.1350319E0,6.603428E-2,-4.7355967E0],"categories":[],"categories_nodes":[],"categories_segments":[],"categories_sizes":[],"default_left":[0,0,0,0,0,0,0,0,0,0,0,0,0,0,0],"id":63,"left_children":[1,3,5,7,9,11,13,-1,-1,-1,-1,-1,-1,-1,-1],"loss_changes":[2.3000525E4,2.7338867E4,2.5033734E4,7.206039E4,9.9546875E3,1.6569672E4,3.6600773E4,0E0,0E0,0E0,0E0,0E0,0E0,0E0,0E0],"parents":[2147483647,0,0,1,1,2,2,3,3,4,4,5,5,6,6],"right_children":[2,4,6,8,10,12,14,-1,-1,-1,-1,-1,-1,-1,-1],"split_conditions":[3.0571349E0,4.9562108E-2,-3.9915973E-1,4.848078E0,1.299081E0,-2.5808081E-2,2.728139E0,-3.1215822E-2,-1.0970136E0,2.0162416E-1,7.687615E-1,3.5843667E-1,1.1350319E0,6.603428E-2,-4.7355967E0],"split_indices":[187,163,70,155,27,254,79,0,0,0,0,0,0,0,0],"split_type":[0,0,0,0,0,0,0,0,0,0,0,0,0,0,0],"sum_hessian":[3.4918E4,3.1543E4,3.375E3,2.8806E4,2.737E3,1.329E3,2.046E3,2.8158E4,6.48E2,2.382E3,3.55E2,9.41E2,3.88E2,2.031E3,1.5E1],"tree_param":{"num_deleted":"0","num_feature":"300","num_nodes":"15","size_leaf_vector":"1"}},{"base_weights":[1.04888604E-4,2.0453385E-1,-3.3068578E0,3.9353165E-1,-3.725729E0,-6.981563E0,2.2160475E0,6.310873E-2,-3.0521578E-1,-5.286416E-1,1.0449336E0,-9.942959E-1,-3.5369393E-1,1.4551316E-1,1.7696431E0],"categories":[],"categories_nodes":[],"categories_segments":[],"categories_sizes":[],"default_left":[0,0,0,0,0,0,0,0,0,0,0,0,0,0,0],"id":64,"left_children":[1,3,5,7,9,11,13,-1,-1,-1,-1,-1,-1,-1,-1],"loss_changes":[2.3607281E4,2.4430293E4,4.1275305E4,2.5686979E4,3.3438594E4,1.2420121E4,9.550792E3,0E0,0E0,0E0,0E0,0E0,0E0,0E0,0E0],"parents":[2147483647,0,0,1,1,2,2,3,3,4,4,5,5,6,6],"right_children":[2,4,6,8,10,12,14,-1,-1,-1,-1,-1,-1,-1,-1],"split_conditions":[4.022941E0,4.7069283E0,-5.453966E-2,4.0324316E0,-1.0051181E-3,8.1453395E-1,3.4875343E0,6.310873E-2,-3.0521578E-1,-5.286416E-1,1.0449336E0,-9.942959E-1,-3.5369393E-1,1.4551316E-1,1.7696431E0],"split_indices":[154,220,23,170,263,102,63,0,0,0,0,0,0,0,0],"split_type":[0,0,0,0,0,0,0,0,0,0,0,0,0,0,0],"sum_hessian":[3.4918E4,3.2886E4,2.032E3,3.1378E4,1.508E3,1.22E3,8.12E2,2.9355E4,2.023E3,1.359E3,1.49E2,6.55E2,5.65E2,7.75E2,3.7E1],"tree_param":{"num_deleted":"0","num_feature":"300","num_nodes":"15","size_leaf_vector":"1"}},{"base_weights":[1.1712636E-4,-1.5988294E-2,4.0155525E1,3.371394E-1,-1.8711394E0,5.026473E1,2.8954332E0,8.476626E-2,-2.312975E-1,-3.4455082E-1,9.5790446E-1,1.4986992E0,5.4322877E0],"categories":[],"categories_nodes":[],"categories_segments":[],"categories_sizes":[],"default_left":[0,0,0,0,0,0,0,0,0,0,0,0,0],"id":65,"left_children":[1,3,5,7,9,11,-1,-1,-1,-1,-1,-1,-1],"loss_changes":[2.2583451E4,2.2867732E4,1.2991016E2,3.9677066E4,1.00658664E5,4.483789E1,0E0,0E0,0E0,0E0,0E0,0E0,0E0],"parents":[2147483647,0,0,1,1,2,2,3,3,4,4,5,5],"right_children":[2,4,6,8,10,12,-1,-1,-1,-1,-1,-1,-1],"split_conditions":[5.1816986E1,9.80938E-2,1.10634826E-1,-1.0055355E-3,-1.0051181E-3,3.0075662E0,2.8954332E0,8.476626E-2,-2.312975E-1,-3.4455082E-1,9.5790446E-1,1.4986992E0,5.4322877E0],"split_indices":[219,133,28,263,263,12,0,0,0,0,0,0,0],"split_type":[0,0,0,0,0,0,0,0,0,0,0,0,0],"sum_hessian":[3.4918E4,3.4905E4,1.3E1,2.9324E4,5.581E3,5E0,8E0,2.4588E4,4.736E3,4.907E3,6.74E2,1E0,4E0],"tree_param":{"num_deleted":"0","num_feature":"300","num_nodes":"13","size_leaf_vector":"1"}},{"base_weights":[4.0288814E-4,-2.2144358E-1,2.7742555E0,7.3065504E-2,-9.383469E0,1.1367114E0,1.7052322E1,4.7366653E-2,-2.7247283E-1,-1.3340112E0,-2.874981E-1,8.802345E-4,5.931581E-1,1.9085191E0,-2.0902565E0],"categories":[],"categories_nodes":[],"categories_segments":[],"categories_sizes":[],"default_left":[0,0,0,0,0,0,0,0,0,0,0,0,0,0,0],"id":66,"left_children":[1,3,5,7,9,11,13,-1,-1,-1,-1,-1,-1,-1,-1],"loss_changes":[2.14887E4,8.724751E4,6.044379E4,3.5113684E4,2.5893672E4,1.2552326E4,2.092279E4,0E0,0E0,0E0,0E0,0E0,0E0,0E0,0E0],"parents":[2147483647,0,0,1,1,2,2,3,3,4,4,5,5,6,6],"right_children":[2,4,6,8,10,12,14,-1,-1,-1,-1,-1,-1,-1,-1],"split_conditions":[5.2567504E-2,4.1779904E0,2.7864957E0,-1.0051181E-3,1.4841379E-1,4.3899223E-1,2.0449903E-2,4.7366653E-2,-2.7247283E-1,-1.3340112E0,-2.874981E-1,8.802345E-4,5.931581E-1,1.9085191E0,-2.0902565E0],"split_indices":[221,215,257,263,137,37,128,0,0,0,0,0,0,0,0],"split_type":[0,0,0,0,0,0,0,0,0,0,0,0,0,0,0],"sum_hessian":[3.4918E4,3.2333E4,2.585E3,3.1327E4,1.006E3,2.32E3,2.65E2,2.7404E4,3.923E3,6.25E2,3.81E2,1.879E3,4.41E2,2.52E2,1.3E1],"tree_param":{"num_deleted":"0","num_feature":"300","num_nodes":"15","size_leaf_vector":"1"}},{"base_weights":[3.2480303E-4,1.190311E-1,-5.030316E0,-2.2498466E-2,4.460606E0,-3.7780151E0,-3.331696E1,-2.5306543E-2,2.7807677E-1,5.0785E-1,-2.0711875E0,-6.9575113E-1,1.8023774E-1,-1.3103104E0,-5.8047643E0],"categories":[],"categories_nodes":[],"categories_segments":[],"categories_sizes":[],"default_left":[0,0,0,0,0,0,0,0,0,0,0,0,0,0,0],"id":67,"left_children":[1,3,5,7,9,11,13,-1,-1,-1,-1,-1,-1,-1,-1],"loss_changes":[2.0853135E4,2.0962445E4,2.8389955E4,2.1355146E4,1.6856748E4,1.3710011E4,1.6236082E4,0E0,0E0,0E0,0E0,0E0,0E0,0E0,0E0],"parents":[2147483647,0,0,1,1,2,2,3,3,4,4,5,5,6,6],"right_children":[2,4,6,8,10,12,14,-1,-1,-1,-1,-1,-1,-1,-1],"split_conditions":[5.9978957E0,3.6398737E0,4.276881E0,5.2567504E-2,1.7297775E-1,6.0143805E-1,-4.8575386E-2,-2.5306543E-2,2.7807677E-1,5.0785E-1,-2.0711875E0,-6.9575113E-1,1.8023774E-1,-1.3103104E0,-5.8047643E0],"split_indices":[65,35,198,221,50,90,278,0,0,0,0,0,0,0,0],"split_type":[0,0,0,0,0,0,0,0,0,0,0,0,0,0,0],"sum_hessian":[3.4918E4,3.4114E4,8.04E2,3.3038E4,1.076E3,7.71E2,3.3E1,3.0528E4,2.51E3,1.051E3,2.5E1,4.91E2,2.8E2,1.9E1,1.4E1],"tree_param":{"num_deleted":"0","num_feature":"300","num_nodes":"15","size_leaf_vector":"1"}},{"base_weights":[3.3423472E-5,-1.5343631E-2,3.833942E1,-1.5244263E-1,4.155145E0,3.9554708E0,1.1270348E0,-3.1436406E-2,3.6284387E-1,3.5415572E-1,3.3026555E0],"categories":[],"categories_nodes":[],"categories_segments":[],"categories_sizes":[],"default_left":[0,0,0,0,0,0,0,0,0,0,0],"id":68,"left_children":[1,3,5,7,9,-1,-1,-1,-1,-1,-1],"loss_changes":[2.0586973E4,1.9958832E4,1.47578125E1,2.069124E4,1.9564572E4,0E0,0E0,0E0,0E0,0E0,0E0],"parents":[2147483647,0,0,1,1,2,2,3,3,4,4],"right_children":[2,4,6,8,10,-1,-1,-1,-1,-1,-1],"split_conditions":[5.1816986E1,2.858047E0,1.756582E-1,4.916828E0,1.8049146E0,3.9554708E0,1.1270348E0,-3.1436406E-2,3.6284387E-1,3.5415572E-1,3.3026555E0],"split_indices":[242,32,28,186,99,0,0,0,0,0,0],"split_type":[0,0,0,0,0,0,0,0,0,0,0],"sum_hessian":[3.4918E4,3.4905E4,1.3E1,3.3795E4,1.11E3,1.2E1,1E0,3.2408E4,1.387E3,1.088E3,2.2E1],"tree_param":{"num_deleted":"0","num_feature":"300","num_nodes":"11","size_leaf_vector":"1"}},{"base_weights":[2.8686077E-4,-2.297037E-1,2.6875756E0,3.1332873E-2,-6.7293715E0,2.2204278E0,1.2250412E1,2.3442803E-2,-5.383779E-1,-1.1373074E0,-3.2907644E-1,3.095112E-1,-3.2063025E-1,1.4540925E0,-1.9650911E0],"categories":[],"categories_nodes":[],"categories_segments":[],"categories_sizes":[],"default_left":[0,0,0,0,0,0,0,0,0,0,0,0,0,0,0],"id":69,"left_children":[1,3,5,7,9,11,13,-1,-1,-1,-1,-1,-1,-1,-1],"loss_changes":[2.1582342E4,5.4576383E4,1.2271166E4,3.4013145E4,1.9794672E4,1.2474694E4,9.63875E3,0E0,0E0,0E0,0E0,0E0,0E0,0E0,0E0],"parents":[2147483647,0,0,1,1,2,2,3,3,4,4,5,5,6,6],"right_children":[2,4,6,8,10,12,14,-1,-1,-1,-1,-1,-1,-1,-1],"split_conditions":[5.227348E-2,4.0324316E0,1.9977851E-1,3.015279E0,1.01754874E-1,2.294602E0,2.7032366E0,2.3442803E-2,-5.383779E-1,-1.1373074E0,-3.2907644E-1,3.095112E-1,-3.2063025E-1,1.4540925E0,-1.9650911E0],"split_indices":[179,170,145,172,139,136,119,0,0,0,0,0,0,0,0],"split_type":[0,0,0,0,0,0,0,0,0,0,0,0,0,0,0],"sum_hessian":[3.4918E4,3.2166E4,2.752E3,3.0925E4,1.241E3,2.625E3,1.27E2,2.9808E4,1.117E3,5.27E2,7.14E2,2.261E3,3.64E2,1.19E2,8E0],"tree_param":{"num_deleted":"0","num_feature":"300","num_nodes":"15","size_leaf_vector":"1"}},{"base_weights":[1.8720103E-4,1.587875E-1,-3.6633813E0,3.276288E-1,-3.6356351E0,-1.0167706E1,2.0854552E0,7.123798E-2,-1.4516152E-1,-1.0012397E0,1.7186268E-1,-1.6120595E0,-4.8627415E-1,2.6202723E-1,-4.342744E0],"categories":[],"categories_nodes":[],"categories_segments":[],"categories_sizes":[],"default_left":[0,0,0,0,0,0,0,0,0,0,0,0,0,0,0],"id":70,"left_children":[1,3,5,7,9,11,13,-1,-1,-1,-1,-1,-1,-1,-1],"loss_changes":[2.0290023E4,2.144456E4,5.4202645E4,2.1938635E4,4.8704914E4,2.1395922E4,1.8856414E4,0E0,0E0,0E0,0E0,0E0,0E0,0E0,0E0],"parents":[2147483647,0,0,1,1,2,2,3,3,4,4,5,5,6,6],"right_children":[2,4,6,8,10,12,14,-1,-1,-1,-1,-1,-1,-1,-1],"split_conditions":[4.807769E0,4.848078E0,-5.453966E-2,-4.200506E-1,-5.453966E-2,-1.0782717E0,1.1410006E0,7.123798E-2,-1.4516152E-1,-1.0012397E0,1.7186268E-1,-1.6120595E0,-4.8627415E-1,2.6202723E-1,-4.342744E0],"split_indices":[171,155,23,96,23,102,61,0,0,0,0,0,0,0,0],"split_type":[0,0,0,0,0,0,0,0,0,0,0,0,0,0,0],"sum_hessian":[3.4918E4,3.347E4,1.448E3,3.2045E4,1.425E3,6.79E2,7.69E2,2.6348E4,5.697E3,6.5E2,7.75E2,3.19E2,3.6E2,7.61E2,8E0],"tree_param":{"num_deleted":"0","num_feature":"300","num_nodes":"15","size_leaf_vector":"1"}},{"base_weights":[-3.497911E-5,-9.250326E-2,5.6428294E0,-1.0570569E0,6.13907E-1,1.2970279E1,-2.4712296E0,-8.061988E-2,-1.5092114E0,8.541517E-2,-6.534418E-1,1.4272197E0,-6.6185E-5,-8.238638E-1,4.4982806E-1],"categories":[],"categories_nodes":[],"categories_segments":[],"categories_sizes":[],"default_left":[0,0,0,0,0,0,0,0,0,0,0,0,0,0,0],"id":71,"left_children":[1,3,5,7,9,11,13,-1,-1,-1,-1,-1,-1,-1,-1],"loss_changes":[1.8220764E4,2.3410496E4,3.3505414E4,5.112757E4,3.4065727E4,4.9985938E3,1.0809592E4,0E0,0E0,0E0,0E0,0E0,0E0,0E0,0E0],"parents":[2147483647,0,0,1,1,2,2,3,3,4,4,5,5,6,6],"right_children":[2,4,6,8,10,12,14,-1,-1,-1,-1,-1,-1,-1,-1],"split_conditions":[7.8186746E0,-9.9359095E-1,1.1218096E0,7.5628476E0,9.72574E-2,1.6542761E-1,1.2528487E-1,-8.061988E-2,-1.5092114E0,8.541517E-2,-6.534418E-1,1.4272197E0,-6.6185E-5,-8.238638E-1,4.4982806E-1],"split_indices":[152,82,274,210,208,50,28,0,0,0,0,0,0,0,0],"split_type":[0,0,0,0,0,0,0,0,0,0,0,0,0,0,0],"sum_hessian":[3.4918E4,3.4356E4,5.62E2,1.4524E4,1.9832E4,2.95E2,2.67E2,1.427E4,2.54E2,1.9188E4,6.44E2,2.68E2,2.7E1,1.46E2,1.21E2],"tree_param":{"num_deleted":"0","num_feature":"300","num_nodes":"15","size_leaf_vector":"1"}},{"base_weights":[-6.411366E-5,-1.6090132E-1,3.2721276E0,1.3137199E-2,-4.822181E0,3.7300868E0,-2.1368286E1,-2.1723427E-2,3.0754814E-1,-7.3932934E-1,1.7959501E-1,5.0137854E-1,-4.0164208E-1,-3.5101922E0,5.5445343E-1],"categories":[],"categories_nodes":[],"categories_segments":[],"categories_sizes":[],"default_left":[0,0,0,0,0,0,0,0,0,0,0,0,0,0,0],"id":72,"left_children":[1,3,5,7,9,11,13,-1,-1,-1,-1,-1,-1,-1,-1],"loss_changes":[1.8378055E4,2.700145E4,1.8540822E4,2.26373E4,2.0398395E4,1.6000432E4,1.1282951E4,0E0,0E0,0E0,0E0,0E0,0E0,0E0,0E0],"parents":[2147483647,0,0,1,1,2,2,3,3,4,4,5,5,6,6],"right_children":[2,4,6,8,10,12,14,-1,-1,-1,-1,-1,-1,-1,-1],"split_conditions":[3.2174017E0,6.0808927E-2,2.637934E0,2.6449723E0,1.3880835E0,7.341444E-3,1.2194059E0,-2.1723427E-2,3.0754814E-1,-7.3932934E-1,1.7959501E-1,5.0137854E-1,-4.0164208E-1,-3.5101922E0,5.5445343E-1],"split_indices":[114,208,54,204,103,263,61,0,0,0,0,0,0,0,0],"split_type":[0,0,0,0,0,0,0,0,0,0,0,0,0,0,0],"sum_hessian":[3.4918E4,3.3283E4,1.635E3,3.2086E4,1.197E3,1.606E3,2.9E1,2.9842E4,2.244E3,8.62E2,3.35E2,1.378E3,2.28E2,1.9E1,1E1],"tree_param":{"num_deleted":"0","num_feature":"300","num_nodes":"15","size_leaf_vector":"1"}},{"base_weights":[-1.4643985E-4,-1.7746326E-2,2.9248358E1,1.9643119E-1,-2.603111E0,3.2213173E1,1.646746E0,5.801029E-5,5.2828234E-1,-4.6429276E-1,3.0999032E-1,3.31372E0,9.176392E-1],"categories":[],"categories_nodes":[],"categories_segments":[],"categories_sizes":[],"default_left":[0,0,0,0,0,0,0,0,0,0,0,0,0],"id":73,"left_children":[1,3,5,7,9,11,-1,-1,-1,-1,-1,-1,-1],"loss_changes":[1.7975785E4,1.9325031E4,2.6528516E2,3.210673E4,3.1074771E4,3.6503906E1,0E0,0E0,0E0,0E0,0E0,0E0,0E0],"parents":[2147483647,0,0,1,1,2,2,3,3,4,4,5,5],"right_children":[2,4,6,8,10,12,-1,-1,-1,-1,-1,-1,-1],"split_conditions":[4.1772E1,3.6841437E-2,6.3775194E-1,4.1331415E0,1.5319053E0,1.1755967E-2,1.646746E0,5.801029E-5,5.2828234E-1,-4.6429276E-1,3.0999032E-1,3.31372E0,9.176392E-1],"split_indices":[231,233,49,224,58,146,0,0,0,0,0,0,0],"split_type":[0,0,0,0,0,0,0,0,0,0,0,0,0],"sum_hessian":[3.4918E4,3.4898E4,2E1,3.2229E4,2.669E3,1.5E1,5E0,3.1035E4,1.194E3,1.966E3,7.03E2,1.4E1,1E0],"tree_param":{"num_deleted":"0","num_feature":"300","num_nodes":"13","size_leaf_vector":"1"}},{"base_weights":[4.4532513E-5,5.7300076E-2,-8.789442E0,2.3829958E-1,-2.8506503E0,-5.502889E0,-3.7557583E1,2.6897147E-2,-1.9379542E0,-6.393194E-1,2.4732082E-1,-1.2586805E0,3.9780307E-1,6.0643442E-2,-5.1062913E0],"categories":[],"categories_nodes":[],"categories_segments":[],"categories_sizes":[],"default_left":[0,0,0,0,0,0,0,0,0,0,0,0,0,0,0],"id":74,"left_children":[1,3,5,7,9,11,13,-1,-1,-1,-1,-1,-1,-1,-1],"loss_changes":[1.7573379E4,1.8261438E4,2.1161176E4,1.9658469E4,3.8358203E4,1.3751127E4,1.1885572E4,0E0,0E0,0E0,0E0,0E0,0E0,0E0,0E0],"parents":[2147483647,0,0,1,1,2,2,3,3,4,4,5,5,6,6],"right_children":[2,4,6,8,10,12,14,-1,-1,-1,-1,-1,-1,-1,-1],"split_conditions":[1.2417372E1,4.022941E0,3.0362651E0,1.9649672E1,-5.453966E-2,3.016061E-1,1.0961795E-1,2.6897147E-2,-1.9379542E0,-6.393194E-1,2.4732082E-1,-1.2586805E0,3.9780307E-1,6.0643442E-2,-5.1062913E0],"split_indices":[251,154,201,278,23,27,50,0,0,0,0,0,0,0,0],"split_type":[0,0,0,0,0,0,0,0,0,0,0,0,0,0,0],"sum_hessian":[3.4918E4,3.4693E4,2.25E2,3.2661E4,2.032E3,2.03E2,2.2E1,3.2611E4,5E1,1.22E3,8.12E2,1.16E2,8.7E1,6E0,1.6E1],"tree_param":{"num_deleted":"0","num_feature":"300","num_nodes":"15","size_leaf_vector":"1"}},{"base_weights":[-1.9462177E-4,-1.7330718E-1,2.8001757E0,-7.5172395E-2,-1.3466391E1,2.174336E0,2.4073606E1,-1.7311126E-2,1.2415799E0,-1.1942636E0,-2.674606E0,1.13623776E-1,1.1926479E0,1.5351441E0,7.6668215E0],"categories":[],"categories_nodes":[],"categories_segments":[],"categories_sizes":[],"default_left":[0,0,0,0,0,0,0,0,0,0,0,0,0,0,0],"id":75,"left_children":[1,3,5,7,9,11,13,-1,-1,-1,-1,-1,-1,-1,-1],"loss_changes":[1.692849E4,4.2900535E4,2.7014523E4,3.9940902E4,4.557207E3,1.9990848E4,2.542989E4,0E0,0E0,0E0,0E0,0E0,0E0,0E0,0E0],"parents":[2147483647,0,0,1,1,2,2,3,3,4,4,5,5,6,6],"right_children":[2,4,6,8,10,12,14,-1,-1,-1,-1,-1,-1,-1,-1],"split_conditions":[4.022941E0,7.5628476E0,2.4932523E0,7.4995084E0,3.344926E0,2.3096054E0,1.677517E-1,-1.7311126E-2,1.2415799E0,-1.1942636E0,-2.674606E0,1.13623776E-1,1.1926479E0,1.5351441E0,7.6668215E0],"split_indices":[237,210,55,168,84,53,50,0,0,0,0,0,0,0,0],"split_type":[0,0,0,0,0,0,0,0,0,0,0,0,0,0,0],"sum_hessian":[3.4918E4,3.2886E4,2.032E3,3.2646E4,2.4E2,1.975E3,5.7E1,3.2393E4,2.53E2,2.17E2,2.3E1,1.786E3,1.89E2,5E1,7E0],"tree_param":{"num_deleted":"0","num_feature":"300","num_nodes":"15","size_leaf_vector":"1"}},{"base_weights":[5.3241896E-5,-1.4006314E-2,3.505454E1,1.2822597E-1,-3.298198E0,4.3607464E0,2.5457638E1,3.8991787E-2,-1.9765894E-1,-9.1535133E-1,1.877013E-1,7.389824E-1,2.6792388E0],"categories":[],"categories_nodes":[],"categories_segments":[],"categories_sizes":[],"default_left":[0,0,0,0,0,0,0,0,0,0,0,0,0],"id":76,"left_children":[1,3,5,7,9,-1,11,-1,-1,-1,-1,-1,-1],"loss_changes":[1.7210336E4,1.6305646E4,3.9E1,1.8429873E4,4.3925492E4,0E0,1.9052734E1,0E0,0E0,0E0,0E0,0E0,0E0],"parents":[2147483647,0,0,1,1,2,2,3,3,4,4,6,6],"right_children":[2,4,6,8,10,-1,12,-1,-1,-1,-1,-1,-1],"split_conditions":[5.1816986E1,4.807769E0,1.10634826E-1,1.62501E-1,-5.453966E-2,4.3607464E0,1.1491374E-1,3.8991787E-2,-1.9765894E-1,-9.1535133E-1,1.877013E-1,7.389824E-1,2.6792388E0],"split_indices":[219,171,28,133,23,0,28,0,0,0,0,0,0],"split_type":[0,0,0,0,0,0,0,0,0,0,0,0,0],"sum_hessian":[3.4918E4,3.4905E4,1.3E1,3.3457E4,1.448E3,5E0,8E0,2.9758E4,3.699E3,6.79E2,7.69E2,1E0,7E0],"tree_param":{"num_deleted":"0","num_feature":"300","num_nodes":"13","size_leaf_vector":"1"}},{"base_weights":[2.470487E-4,-2.0052004E-1,2.5105343E0,3.599397E-2,-7.558326E0,1.0294312E0,1.5424556E1,4.3621227E-2,-2.2034667E-1,-1.0825524E0,-2.1844399E-1,7.67832E-3,5.4695135E-1,5.167381E0,1.3508552E0],"categories":[],"categories_nodes":[],"categories_segments":[],"categories_sizes":[],"default_left":[0,0,0,0,0,0,0,0,0,0,0,0,0,0,0],"id":77,"left_children":[1,3,5,7,9,11,13,-1,-1,-1,-1,-1,-1,-1,-1],"loss_changes":[1.7599088E4,5.626868E4,4.944654E4,2.8079408E4,1.7656805E4,9.817028E3,1.7776629E4,0E0,0E0,0E0,0E0,0E0,0E0,0E0,0E0],"parents":[2147483647,0,0,1,1,2,2,3,3,4,4,5,5,6,6],"right_children":[2,4,6,8,10,12,14,-1,-1,-1,-1,-1,-1,-1,-1],"split_conditions":[5.2567504E-2,4.1779904E0,2.7864957E0,-1.0055355E-3,1.4841379E-1,-1.819065E-2,-3.809952E0,4.3621227E-2,-2.2034667E-1,-1.0825524E0,-2.1844399E-1,7.67832E-3,5.4695135E-1,5.167381E0,1.3508552E0],"split_indices":[221,215,257,263,137,119,110,0,0,0,0,0,0,0,0],"split_type":[0,0,0,0,0,0,0,0,0,0,0,0,0,0,0],"sum_hessian":[3.4918E4,3.2333E4,2.585E3,3.1327E4,1.006E3,2.32E3,2.65E2,2.6578E4,4.749E3,6.25E2,3.81E2,1.911E3,4.09E2,1.2E1,2.53E2],"tree_param":{"num_deleted":"0","num_feature":"300","num_nodes":"15","size_leaf_vector":"1"}},{"base_weights":[3.799768E-4,1.4328095E-1,-3.3560896E0,4.8226258E-1,-1.2565327E0,-9.115574E0,1.4527293E0,6.0893428E-2,-5.6826156E-1,-1.7425087E-1,6.1168134E-1,-1.7472668E0,-2.8457147E-1,-1.1427716E0,3.2395563E-1],"categories":[],"categories_nodes":[],"categories_segments":[],"categories_sizes":[],"default_left":[0,0,0,0,0,0,0,0,0,0,0,0,0,0,0],"id":78,"left_children":[1,3,5,7,9,11,13,-1,-1,-1,-1,-1,-1,-1,-1],"loss_changes":[1.6749127E4,1.5893879E4,3.9508195E4,2.1060846E4,2.3409408E4,3.3956453E4,1.7942791E4,0E0,0E0,0E0,0E0,0E0,0E0,0E0,0E0],"parents":[2147483647,0,0,1,1,2,2,3,3,4,4,5,5,6,6],"right_children":[2,4,6,8,10,12,14,-1,-1,-1,-1,-1,-1,-1,-1],"split_conditions":[4.848078E0,1.4464138E0,4.9562108E-2,5.9978957E0,3.974701E-2,-9.926174E-1,9.503945E-3,6.0893428E-2,-5.6826156E-1,-1.7425087E-1,6.1168134E-1,-1.7472668E0,-2.8457147E-1,-1.1427716E0,3.2395563E-1],"split_indices":[155,59,163,65,221,82,146,0,0,0,0,0,0,0,0],"split_type":[0,0,0,0,0,0,0,0,0,0,0,0,0,0,0],"sum_hessian":[3.4918E4,3.3493E4,1.425E3,2.6964E4,6.529E3,6.48E2,7.77E2,2.6422E4,5.42E2,6.126E3,4.03E2,2.77E2,3.71E2,9.4E1,6.83E2],"tree_param":{"num_deleted":"0","num_feature":"300","num_nodes":"15","size_leaf_vector":"1"}},{"base_weights":[2.5744876E-4,-1.9177091E-1,2.257327E0,-2.6800685E-2,-8.207148E0,1.6531351E0,7.431543E0,2.0105597E-2,-5.6983143E-1,-1.5731684E0,-2.5619107E-1,4.096403E-1,3.3101593E-3,1.2077655E0,-1.331E-1],"categories":[],"categories_nodes":[],"categories_segments":[],"categories_sizes":[],"default_left":[0,0,0,0,0,0,0,0,0,0,0,0,0,0,0],"id":79,"left_children":[1,3,5,7,9,11,13,-1,-1,-1,-1,-1,-1,-1,-1],"loss_changes":[1.5135075E4,4.2553992E4,8.547305E3,4.0752285E4,2.7527777E4,9.7092705E3,1.1659636E4,0E0,0E0,0E0,0E0,0E0,0E0,0E0,0E0],"parents":[2147483647,0,0,1,1,2,2,3,3,4,4,5,5,6,6],"right_children":[2,4,6,8,10,12,14,-1,-1,-1,-1,-1,-1,-1,-1],"split_conditions":[4.9562108E-2,4.848078E0,1.1577816E0,4.022941E0,-9.926174E-1,-3.7042814E-1,1.0160769E0,2.0105597E-2,-5.6983143E-1,-1.5731684E0,-2.5619107E-1,4.096403E-1,3.3101593E-3,1.2077655E0,-1.331E-1],"split_indices":[163,155,88,154,82,49,40,0,0,0,0,0,0,0,0],"split_type":[0,0,0,0,0,0,0,0,0,0,0,0,0,0,0],"sum_hessian":[3.4918E4,3.2181E4,2.737E3,3.1533E4,6.48E2,2.452E3,2.85E2,3.0316E4,1.217E3,2.77E2,3.71E2,9.77E2,1.475E3,1.86E2,9.9E1],"tree_param":{"num_deleted":"0","num_feature":"300","num_nodes":"15","size_leaf_vector":"1"}},{"base_weights":[2.0529427E-4,-1.9038735E-1,2.2271554E0,-1.4148792E-2,-8.350989E0,6.441623E0,1.2451721E0,2.368441E-2,-6.126684E-1,-1.2324363E0,-2.0041414E-1,9.592475E-1,-7.939817E-1,2.5449801E-2,7.9116315E-1],"categories":[],"categories_nodes":[],"categories_segments":[],"categories_sizes":[],"default_left":[0,0,0,0,0,0,0,0,0,0,0,0,0,0,0],"id":80,"left_children":[1,3,5,7,9,11,13,-1,-1,-1,-1,-1,-1,-1,-1],"loss_changes":[1.4821455E4,4.626287E4,1.1385369E4,4.8310434E4,1.7123809E4,2.3639332E4,1.4751968E4,0E0,0E0,0E0,0E0,0E0,0E0,0E0,0E0],"parents":[2147483647,0,0,1,1,2,2,3,3,4,4,5,5,6,6],"right_children":[2,4,6,8,10,12,14,-1,-1,-1,-1,-1,-1,-1,-1],"split_conditions":[5.227348E-2,4.807769E0,9.0927444E-2,4.0324316E0,1.1218096E0,1.6040729E-1,8.6472327E-1,2.368441E-2,-6.126684E-1,-1.2324363E0,-2.0041414E-1,9.592475E-1,-7.939817E-1,2.5449801E-2,7.9116315E-1],"split_indices":[179,171,110,170,274,91,127,0,0,0,0,0,0,0,0],"split_type":[0,0,0,0,0,0,0,0,0,0,0,0,0,0,0],"sum_hessian":[3.4918E4,3.2166E4,2.752E3,3.1487E4,6.79E2,5.19E2,2.233E3,3.0246E4,1.241E3,4.17E2,2.62E2,4.26E2,9.3E1,1.945E3,2.88E2],"tree_param":{"num_deleted":"0","num_feature":"300","num_nodes":"15","size_leaf_vector":"1"}},{"base_weights":[1.5740162E-4,1.870485E-1,-2.2444856E0,-4.1049972E-2,3.9357069E0,-4.097495E0,2.893481E0,-2.2644827E-3,-2.798629E0,5.3578985E-1,-3.0605993E-1,-3.3247113E-1,-1.7155415E0,5.4699415E-1,-1.6967983E0],"categories":[],"categories_nodes":[],"categories_segments":[],"categories_sizes":[],"default_left":[0,0,0,0,0,0,0,0,0,0,0,0,0,0,0],"id":81,"left_children":[1,3,5,7,9,11,13,-1,-1,-1,-1,-1,-1,-1,-1],"loss_changes":[1.4649072E4,2.756398E4,2.5565422E4,1.5629015E4,1.8414104E4,1.9852398E4,3.652747E4,0E0,0E0,0E0,0E0,0E0,0E0,0E0,0E0],"parents":[2147483647,0,0,1,1,2,2,3,3,4,4,5,5,6,6],"right_children":[2,4,6,8,10,12,14,-1,-1,-1,-1,-1,-1,-1,-1],"split_conditions":[3.6841437E-2,3.0254805E0,1.5319053E0,2.3226925E1,-2.9295788E-3,5.2511834E-2,1.980179E0,-2.2644827E-3,-2.798629E0,5.3578985E-1,-3.0605993E-1,-3.3247113E-1,-1.7155415E0,5.4699415E-1,-1.6967983E0],"split_indices":[233,226,58,271,271,254,67,0,0,0,0,0,0,0,0],"split_type":[0,0,0,0,0,0,0,0,0,0,0,0,0,0,0],"sum_hessian":[3.4918E4,3.2235E4,2.683E3,3.0387E4,1.848E3,1.972E3,7.11E2,3.0368E4,1.9E1,1.536E3,3.12E2,1.863E3,1.09E2,6.3E2,8.1E1],"tree_param":{"num_deleted":"0","num_feature":"300","num_nodes":"15","size_leaf_vector":"1"}},{"base_weights":[-2.5082461E-5,-1.2979477E-2,3.2298985E1,-1.3000177E-1,3.546785E0,3.9098294E0,2.2312214E0,1.758931E-2,-1.6145813E-1,2.9751426E-1,3.0458622E0],"categories":[],"categories_nodes":[],"categories_segments":[],"categories_sizes":[],"default_left":[0,0,0,0,0,0,0,0,0,0,0],"id":82,"left_children":[1,3,5,7,9,-1,-1,-1,-1,-1,-1],"loss_changes":[1.4611021E4,1.4541316E4,7.827539E1,1.5347901E4,1.7000959E4,0E0,0E0,0E0,0E0,0E0,0E0],"parents":[2147483647,0,0,1,1,2,2,3,3,4,4],"right_children":[2,4,6,8,10,-1,-1,-1,-1,-1,-1],"split_conditions":[5.1816986E1,2.858047E0,1.10634826E-1,1.5598558E-1,1.8049146E0,3.9098294E0,2.2312214E0,1.758931E-2,-1.6145813E-1,2.9751426E-1,3.0458622E0],"split_indices":[242,32,28,28,99,0,0,0,0,0,0],"split_type":[0,0,0,0,0,0,0,0,0,0,0],"sum_hessian":[3.4918E4,3.4905E4,1.3E1,3.3795E4,1.11E3,6E0,7E0,2.8022E4,5.773E3,1.088E3,2.2E1],"tree_param":{"num_deleted":"0","num_feature":"300","num_nodes":"11","size_leaf_vector":"1"}},{"base_weights":[2.4499558E-4,-1.5347289E-2,2.5912382E1,-8.480386E-1,4.8472646E-1,3.4311547E0,2.026528E1,-4.2571496E-2,-6.120774E-1,6.55721E-1,3.8420822E-2,7.8474694E-1,2.2715776E0],"categories":[],"categories_nodes":[],"categories_segments":[],"categories_sizes":[],"default_left":[0,0,0,0,0,0,0,0,0,0,0,0,0],"id":83,"left_children":[1,3,5,7,9,-1,11,-1,-1,-1,-1,-1,-1],"loss_changes":[1.4108701E4,1.4532603E4,3.0071582E2,2.9157355E4,1.330715E4,0E0,2.7818555E2,0E0,0E0,0E0,0E0,0E0,0E0],"parents":[2147483647,0,0,1,1,2,2,3,3,4,4,6,6],"right_children":[2,4,6,8,10,-1,12,-1,-1,-1,-1,-1,-1],"split_conditions":[4.1772E1,5.5518997E-1,1.4458233E0,4.931086E-2,5.553627E-1,3.4311547E0,-5.9726935E-2,-4.2571496E-2,-6.120774E-1,6.55721E-1,3.8420822E-2,7.8474694E-1,2.2715776E0],"split_indices":[231,64,58,233,64,0,23,0,0,0,0,0,0],"split_type":[0,0,0,0,0,0,0,0,0,0,0,0,0],"sum_hessian":[3.4918E4,3.4898E4,2E1,1.3094E4,2.1804E4,6E0,1.4E1,1.2124E4,9.7E2,3.54E2,2.145E4,3E0,1.1E1],"tree_param":{"num_deleted":"0","num_feature":"300","num_nodes":"13","size_leaf_vector":"1"}},{"base_weights":[4.0707065E-4,4.5523062E-2,-8.8553295E0,-1.3386199E-1,2.3561535E0,-1.1132438E1,2.3382618E1,7.0719565E-3,-6.7222613E-1,1.9269785E-2,8.3723605E-1,-1.1956083E0,6.238445E0,-7.181484E-1,3.4368596E0],"categories":[],"categories_nodes":[],"categories_segments":[],"categories_sizes":[],"default_left":[0,0,0,0,0,0,0,0,0,0,0,0,0,0,0],"id":84,"left_children":[1,3,5,7,9,11,13,-1,-1,-1,-1,-1,-1,-1,-1],"loss_changes":[1.3951776E4,1.4401029E4,1.3253753E4,4.3456992E4,3.2576926E4,1.0797467E4,4.276136E3,0E0,0E0,0E0,0E0,0E0,0E0,0E0,0E0],"parents":[2147483647,0,0,1,1,2,2,3,3,4,4,5,5,6,6],"right_children":[2,4,6,8,10,12,14,-1,-1,-1,-1,-1,-1,-1,-1],"split_conditions":[1.404983E1,5.2567504E-2,1.7223176E0,4.1779904E0,4.3899223E-1,3.9347075E-2,1.1690368E-1,7.0719565E-3,-6.7222613E-1,1.9269785E-2,8.3723605E-1,-1.1956083E0,6.238445E0,-7.181484E-1,3.4368596E0],"split_indices":[218,221,27,215,37,244,28,0,